<?xml version="1.0"?>
<opencv_storage>
<cascade>
  <stageType>BOOST</stageType>
  <featureType>HAAR</featureType>
  <height>20</height>
  <width>20</width>
  <stageParams>
    <boostType>GAB</boostType>
    <minHitRate>9.9500000476837158e-01</minHitRate>
    <maxFalseAlarm>5.0000000000000000e-01</maxFalseAlarm>
    <weightTrimRate>9.4999999999999996e-01</weightTrimRate>
    <maxDepth>1</maxDepth>
    <maxWeakCount>1000</maxWeakCount></stageParams>
  <featureParams>
    <maxCatCount>0</maxCatCount>
    <featSize>1</featSize>
    <mode>ALL</mode></featureParams>
  <stageNum>15</stageNum>
  <stages>
    <!-- stage 0 -->
    <_>
      <maxWeakCount>8</maxWeakCount>
      <stageThreshold>-2.2600240707397461e+00</stageThreshold>
      <weakClassifiers>
        <_>
          <internalNodes>
            0 -1 144 -3.5045808181166649e-03</internalNodes>
          <leafValues>
            4.4885177165269852e-02 -8.9586812257766724e-01</leafValues></_>
        <_>
          <internalNodes>
            0 -1 140 -4.8720859922468662e-05</internalNodes>
          <leafValues>
            1.3186967372894287e-01 -7.7235543727874756e-01</leafValues></_>
        <_>
          <internalNodes>
            0 -1 101 -5.4252974223345518e-04</internalNodes>
          <leafValues>
            3.2897433638572693e-01 -4.8008573055267334e-01</leafValues></_>
        <_>
          <internalNodes>
            0 -1 163 -5.9559522196650505e-04</internalNodes>
          <leafValues>
            2.7457597851753235e-01 -5.1412248611450195e-01</leafValues></_>
        <_>
          <internalNodes>
            0 -1 272 2.0526271313428879e-02</internalNodes>
          <leafValues>
            -2.0270679891109467e-01 6.7544263601303101e-01</leafValues></_>
        <_>
          <internalNodes>
            0 -1 234 -6.0176304541528225e-03</internalNodes>
          <leafValues>
            6.5700328350067139e-01 -1.6540700197219849e-01</leafValues></_>
        <_>
          <internalNodes>
            0 -1 93 4.1868882253766060e-03</internalNodes>
          <leafValues>
            -2.1763986349105835e-01 5.6371599435806274e-01</leafValues></_>
        <_>
          <internalNodes>
            0 -1 126 -5.3694594651460648e-02</internalNodes>
          <leafValues>
            -8.2954543828964233e-01 1.9946275651454926e-01</leafValues></_></weakClassifiers></_>
    <!-- stage 1 -->
    <_>
      <maxWeakCount>10</maxWeakCount>
      <stageThreshold>-1.7528131008148193e+00</stageThreshold>
      <weakClassifiers>
        <_>
          <internalNodes>
            0 -1 115 2.6836875826120377e-02</internalNodes>
          <leafValues>
            -8.3959650993347168e-01 -7.2046108543872833e-03</leafValues></_>
        <_>
          <internalNodes>
            0 -1 142 -4.6965997898951173e-04</internalNodes>
          <leafValues>
            1.0375586152076721e-01 -6.3711172342300415e-01</leafValues></_>
        <_>
          <internalNodes>
            0 -1 5 -1.9224938750267029e-01</internalNodes>
          <leafValues>
            4.9257165193557739e-01 -3.1523352861404419e-01</leafValues></_>
        <_>
          <internalNodes>
            0 -1 260 -2.4547481443732977e-03</internalNodes>
          <leafValues>
            5.2234399318695068e-01 -2.7234435081481934e-01</leafValues></_>
        <_>
          <internalNodes>
            0 -1 52 7.6250974088907242e-03</internalNodes>
          <leafValues>
            -1.7010664939880371e-01 6.9512426853179932e-01</leafValues></_>
        <_>
          <internalNodes>
            0 -1 99 2.1658567711710930e-03</internalNodes>
          <leafValues>
            -2.0476019382476807e-01 6.1515152454376221e-01</leafValues></_>
        <_>
          <internalNodes>
            0 -1 147 1.9595758058130741e-03</internalNodes>
          <leafValues>
            -1.9869409501552582e-01 5.7835084199905396e-01</leafValues></_>
        <_>
          <internalNodes>
            0 -1 110 3.7544331280514598e-04</internalNodes>
          <leafValues>
            -4.9410343170166016e-01 2.4666352570056915e-01</leafValues></_>
        <_>
          <internalNodes>
            0 -1 218 4.1813994757831097e-03</internalNodes>
          <leafValues>
            -2.0025226473808289e-01 5.4564476013183594e-01</leafValues></_>
        <_>
          <internalNodes>
            0 -1 201 -2.2712163627147675e-03</internalNodes>
          <leafValues>
            -6.7928981781005859e-01 1.9372563064098358e-01</leafValues></_></weakClassifiers></_>
    <!-- stage 2 -->
    <_>
      <maxWeakCount>15</maxWeakCount>
      <stageThreshold>-2.0442011356353760e+00</stageThreshold>
      <weakClassifiers>
        <_>
          <internalNodes>
            0 -1 273 -6.4272768795490265e-02</internalNodes>
          <leafValues>
            6.1271673440933228e-01 -7.8106510639190674e-01</leafValues></_>
        <_>
          <internalNodes>
            0 -1 174 8.1924740225076675e-03</internalNodes>
          <leafValues>
            -5.6772148609161377e-01 1.6493259370326996e-01</leafValues></_>
        <_>
          <internalNodes>
            0 -1 65 1.0182386264204979e-02</internalNodes>
          <leafValues>
            -1.9826456904411316e-01 5.3555107116699219e-01</leafValues></_>
        <_>
          <internalNodes>
            0 -1 118 9.4574056565761566e-03</internalNodes>
          <leafValues>
            -1.9930823147296906e-01 6.0443508625030518e-01</leafValues></_>
        <_>
          <internalNodes>
            0 -1 247 -1.0617090389132500e-02</internalNodes>
          <leafValues>
            -7.5016641616821289e-01 1.3499008119106293e-01</leafValues></_>
        <_>
          <internalNodes>
            0 -1 222 -5.2438897546380758e-04</internalNodes>
          <leafValues>
            3.2449996471405029e-01 -3.5246589779853821e-01</leafValues></_>
        <_>
          <internalNodes>
            0 -1 130 2.3541999980807304e-03</internalNodes>
          <leafValues>
            -2.6501870155334473e-01 3.7286904454231262e-01</leafValues></_>
        <_>
          <internalNodes>
            0 -1 187 4.6351496130228043e-03</internalNodes>
          <leafValues>
            -1.9626438617706299e-01 4.6685549616813660e-01</leafValues></_>
        <_>
          <internalNodes>
            0 -1 170 5.4605677723884583e-03</internalNodes>
          <leafValues>
            1.5618278086185455e-01 -7.9937410354614258e-01</leafValues></_>
        <_>
          <internalNodes>
            0 -1 235 -3.6450752522796392e-03</internalNodes>
          <leafValues>
            4.5216259360313416e-01 -2.3802715539932251e-01</leafValues></_>
        <_>
          <internalNodes>
            0 -1 261 1.9022572785615921e-02</internalNodes>
          <leafValues>
            -1.1403150856494904e-01 5.9267336130142212e-01</leafValues></_>
        <_>
          <internalNodes>
            0 -1 281 2.2489354014396667e-02</internalNodes>
          <leafValues>
            -1.2084823101758957e-01 6.7204582691192627e-01</leafValues></_>
        <_>
          <internalNodes>
            0 -1 203 1.6894843429327011e-03</internalNodes>
          <leafValues>
            1.2602400779724121e-01 -7.7913522720336914e-01</leafValues></_>
        <_>
          <internalNodes>
            0 -1 176 4.8852096369955689e-05</internalNodes>
          <leafValues>
            -3.7881329655647278e-01 1.9950588047504425e-01</leafValues></_>
        <_>
          <internalNodes>
            0 -1 276 1.6038969159126282e-02</internalNodes>
          <leafValues>
            -1.3880138099193573e-01 5.6536442041397095e-01</leafValues></_></weakClassifiers></_>
    <!-- stage 3 -->
    <_>
      <maxWeakCount>17</maxWeakCount>
      <stageThreshold>-2.0699634552001953e+00</stageThreshold>
      <weakClassifiers>
        <_>
          <internalNodes>
            0 -1 12 -9.3076810240745544e-02</internalNodes>
          <leafValues>
            1.1111111193895340e-01 -7.9440635442733765e-01</leafValues></_>
        <_>
          <internalNodes>
            0 -1 290 1.9685596227645874e-02</internalNodes>
          <leafValues>
            -4.4267603754997253e-01 2.9747581481933594e-01</leafValues></_>
        <_>
          <internalNodes>
            0 -1 134 1.9217011868022382e-04</internalNodes>
          <leafValues>
            -3.8570451736450195e-01 2.5512102246284485e-01</leafValues></_>
        <_>
          <internalNodes>
            0 -1 227 -3.1362178269773722e-03</internalNodes>
          <leafValues>
            -8.1012976169586182e-01 9.5276400446891785e-02</leafValues></_>
        <_>
          <internalNodes>
            0 -1 207 3.0983034521341324e-03</internalNodes>
          <leafValues>
            1.2190338224172592e-01 -7.7293914556503296e-01</leafValues></_>
        <_>
          <internalNodes>
            0 -1 119 -8.2467980682849884e-03</internalNodes>
          <leafValues>
            5.1614910364151001e-01 -1.7518229782581329e-01</leafValues></_>
        <_>
          <internalNodes>
            0 -1 72 -2.7720041107386351e-03</internalNodes>
          <leafValues>
            4.9204763770103455e-01 -2.1495692431926727e-01</leafValues></_>
        <_>
          <internalNodes>
            0 -1 88 -2.1384071442298591e-04</internalNodes>
          <leafValues>
            2.8827705979347229e-01 -2.8612694144248962e-01</leafValues></_>
        <_>
          <internalNodes>
            0 -1 185 -1.4188639819622040e-02</internalNodes>
          <leafValues>
            3.8832822442054749e-01 -2.3273609578609467e-01</leafValues></_>
        <_>
          <internalNodes>
            0 -1 6 2.9581350088119507e-01</internalNodes>
          <leafValues>
            -1.4789278805255890e-01 6.2387484312057495e-01</leafValues></_>
        <_>
          <internalNodes>
            0 -1 240 2.6413127779960632e-02</internalNodes>
          <leafValues>
            -1.8920311331748962e-01 4.5003807544708252e-01</leafValues></_>
        <_>
          <internalNodes>
            0 -1 294 1.5664486214518547e-02</internalNodes>
          <leafValues>
            -1.8591783940792084e-01 4.3291091918945312e-01</leafValues></_>
        <_>
          <internalNodes>
            0 -1 199 -5.5546643125126138e-05</internalNodes>
          <leafValues>
            2.7104264497756958e-01 -2.8481033444404602e-01</leafValues></_>
        <_>
          <internalNodes>
            0 -1 196 -1.0358942672610283e-03</internalNodes>
          <leafValues>
            3.6070904135704041e-01 -2.2643102705478668e-01</leafValues></_>
        <_>
          <internalNodes>
            0 -1 182 -1.3574578333646059e-03</internalNodes>
          <leafValues>
            -7.7663624286651611e-01 1.0346049815416336e-01</leafValues></_>
        <_>
          <internalNodes>
            0 -1 54 -3.6595659330487251e-03</internalNodes>
          <leafValues>
            3.9285999536514282e-01 -1.9556884467601776e-01</leafValues></_>
        <_>
          <internalNodes>
            0 -1 100 -3.3956570550799370e-03</internalNodes>
          <leafValues>
            4.3209764361381531e-01 -1.9843900203704834e-01</leafValues></_></weakClassifiers></_>
    <!-- stage 4 -->
    <_>
      <maxWeakCount>16</maxWeakCount>
      <stageThreshold>-2.0534992218017578e+00</stageThreshold>
      <weakClassifiers>
        <_>
          <internalNodes>
            0 -1 295 -3.6535672843456268e-02</internalNodes>
          <leafValues>
            2.7565392851829529e-01 -7.8496772050857544e-01</leafValues></_>
        <_>
          <internalNodes>
            0 -1 178 5.5475418776040897e-05</internalNodes>
          <leafValues>
            -6.2391227483749390e-01 -2.8430080041289330e-02</leafValues></_>
        <_>
          <internalNodes>
            0 -1 148 -5.5605070665478706e-03</internalNodes>
          <leafValues>
            5.0488770008087158e-01 -1.8275445699691772e-01</leafValues></_>
        <_>
          <internalNodes>
            0 -1 152 4.4659036211669445e-03</internalNodes>
          <leafValues>
            -1.9967111945152283e-01 4.3389660120010376e-01</leafValues></_>
        <_>
          <internalNodes>
            0 -1 107 -1.8761038780212402e-02</internalNodes>
          <leafValues>
            -8.8413816690444946e-01 1.0140204429626465e-01</leafValues></_>
        <_>
          <internalNodes>
            0 -1 160 -6.5146319568157196e-02</internalNodes>
          <leafValues>
            -7.8451895713806152e-01 1.0903332382440567e-01</leafValues></_>
        <_>
          <internalNodes>
            0 -1 81 -8.9671947062015533e-03</internalNodes>
          <leafValues>
            1.9693633913993835e-01 -3.9812088012695312e-01</leafValues></_>
        <_>
          <internalNodes>
            0 -1 98 1.2005091644823551e-02</internalNodes>
          <leafValues>
            8.5416600108146667e-02 -7.4699449539184570e-01</leafValues></_>
        <_>
          <internalNodes>
            0 -1 158 -2.3978548124432564e-03</internalNodes>
          <leafValues>
            4.4491031765937805e-01 -1.5728531777858734e-01</leafValues></_>
        <_>
          <internalNodes>
            0 -1 179 2.8624688275158405e-03</internalNodes>
          <leafValues>
            8.8746786117553711e-02 -7.4214231967926025e-01</leafValues></_>
        <_>
          <internalNodes>
            0 -1 277 -2.2133870050311089e-02</internalNodes>
          <leafValues>
            6.7123126983642578e-01 -1.1155356466770172e-01</leafValues></_>
        <_>
          <internalNodes>
            0 -1 267 1.5946449711918831e-02</internalNodes>
          <leafValues>
            -1.2672616541385651e-01 5.9928470849990845e-01</leafValues></_>
        <_>
          <internalNodes>
            0 -1 24 -2.0018454641103745e-02</internalNodes>
          <leafValues>
            4.8664540052413940e-01 -1.4558869600296021e-01</leafValues></_>
        <_>
          <internalNodes>
            0 -1 212 4.0876031562220305e-05</internalNodes>
          <leafValues>
            -3.1322062015533447e-01 2.4965302646160126e-01</leafValues></_>
        <_>
          <internalNodes>
            0 -1 132 3.3440389670431614e-03</internalNodes>
          <leafValues>
            1.1362111568450928e-01 -5.8251345157623291e-01</leafValues></_>
        <_>
          <internalNodes>
            0 -1 82 -4.5629955828189850e-02</internalNodes>
          <leafValues>
            5.1986986398696899e-01 -1.4148598909378052e-01</leafValues></_></weakClassifiers></_>
    <!-- stage 5 -->
    <_>
      <maxWeakCount>18</maxWeakCount>
      <stageThreshold>-1.9750419855117798e+00</stageThreshold>
      <weakClassifiers>
        <_>
          <internalNodes>
            0 -1 268 3.7584871053695679e-02</internalNodes>
          <leafValues>
            -7.8455621004104614e-01 1.1149228364229202e-01</leafValues></_>
        <_>
          <internalNodes>
            0 -1 41 -1.5941353514790535e-02</internalNodes>
          <leafValues>
            4.2421346902847290e-01 -3.7397149205207825e-01</leafValues></_>
        <_>
          <internalNodes>
            0 -1 210 5.1174312829971313e-05</internalNodes>
          <leafValues>
            -4.1815972328186035e-01 1.8172758817672729e-01</leafValues></_>
        <_>
          <internalNodes>
            0 -1 41 1.5136060304939747e-02</internalNodes>
          <leafValues>
            -1.4481526613235474e-01 5.6759953498840332e-01</leafValues></_>
        <_>
          <internalNodes>
            0 -1 282 2.2168083116412163e-02</internalNodes>
          <leafValues>
            -1.2033256888389587e-01 6.4394038915634155e-01</leafValues></_>
        <_>
          <internalNodes>
            0 -1 280 -1.0379826650023460e-02</internalNodes>
          <leafValues>
            5.3109580278396606e-01 -1.4587098360061646e-01</leafValues></_>
        <_>
          <internalNodes>
            0 -1 19 5.5944666266441345e-02</internalNodes>
          <leafValues>
            -1.7726303637027740e-01 4.1431251168251038e-01</leafValues></_>
        <_>
          <internalNodes>
            0 -1 25 -1.0886892676353455e-02</internalNodes>
          <leafValues>
            3.7184354662895203e-01 -1.8385855853557587e-01</leafValues></_>
        <_>
          <internalNodes>
            0 -1 166 6.9491276517510414e-03</internalNodes>
          <leafValues>
            1.0005562007427216e-01 -7.3522144556045532e-01</leafValues></_>
        <_>
          <internalNodes>
            0 -1 292 1.6677746549248695e-02</internalNodes>
          <leafValues>
            -1.5058434009552002e-01 4.5432162284851074e-01</leafValues></_>
        <_>
          <internalNodes>
            0 -1 60 -2.4542585015296936e-01</internalNodes>
          <leafValues>
            -7.9285472631454468e-01 8.4088832139968872e-02</leafValues></_>
        <_>
          <internalNodes>
            0 -1 205 3.7226718850433826e-03</internalNodes>
          <leafValues>
            6.2308654189109802e-02 -8.8826072216033936e-01</leafValues></_>
        <_>
          <internalNodes>
            0 -1 188 5.1492732018232346e-03</internalNodes>
          <leafValues>
            -1.8736295402050018e-01 3.4546205401420593e-01</leafValues></_>
        <_>
          <internalNodes>
            0 -1 189 -2.5802995078265667e-03</internalNodes>
          <leafValues>
            4.5251181721687317e-01 -1.9373784959316254e-01</leafValues></_>
        <_>
          <internalNodes>
            0 -1 204 4.6269362792372704e-03</internalNodes>
          <leafValues>
            8.6940348148345947e-02 -8.4472513198852539e-01</leafValues></_>
        <_>
          <internalNodes>
            0 -1 70 -9.1875664889812469e-02</internalNodes>
          <leafValues>
            -8.3387190103530884e-01 5.3291041404008865e-02</leafValues></_>
        <_>
          <internalNodes>
            0 -1 279 1.5859853476285934e-02</internalNodes>
          <leafValues>
            -1.5062639117240906e-01 4.3485790491104126e-01</leafValues></_>
        <_>
          <internalNodes>
            0 -1 255 1.0146688669919968e-02</internalNodes>
          <leafValues>
            -1.2877203524112701e-01 4.7771564126014709e-01</leafValues></_></weakClassifiers></_>
    <!-- stage 6 -->
    <_>
      <maxWeakCount>21</maxWeakCount>
      <stageThreshold>-1.8904362916946411e+00</stageThreshold>
      <weakClassifiers>
        <_>
          <internalNodes>
            0 -1 213 4.7490570694208145e-02</internalNodes>
          <leafValues>
            -8.0859184265136719e-01 -1.8501171469688416e-01</leafValues></_>
        <_>
          <internalNodes>
            0 -1 116 -1.3162321411073208e-03</internalNodes>
          <leafValues>
            7.3455967940390110e-03 -5.3936272859573364e-01</leafValues></_>
        <_>
          <internalNodes>
            0 -1 35 -2.0028322935104370e-02</internalNodes>
          <leafValues>
            5.5888086557388306e-01 -1.3297118246555328e-01</leafValues></_>
        <_>
          <internalNodes>
            0 -1 34 -5.2764797583222389e-03</internalNodes>
          <leafValues>
            4.2257022857666016e-01 -1.3747891783714294e-01</leafValues></_>
        <_>
          <internalNodes>
            0 -1 135 -1.4896104112267494e-03</internalNodes>
          <leafValues>
            -7.9997915029525757e-01 8.1082165241241455e-02</leafValues></_>
        <_>
          <internalNodes>
            0 -1 283 2.8117116540670395e-02</internalNodes>
          <leafValues>
            -9.3786299228668213e-02 5.8671575784683228e-01</leafValues></_>
        <_>
          <internalNodes>
            0 -1 265 8.4582660347223282e-03</internalNodes>
          <leafValues>
            -1.7776307463645935e-01 3.6169025301933289e-01</leafValues></_>
        <_>
          <internalNodes>
            0 -1 36 1.2140512466430664e-02</internalNodes>
          <leafValues>
            -1.2804830074310303e-01 4.9290767312049866e-01</leafValues></_>
        <_>
          <internalNodes>
            0 -1 92 1.2515242211520672e-02</internalNodes>
          <leafValues>
            -1.2062190473079681e-01 4.8125874996185303e-01</leafValues></_>
        <_>
          <internalNodes>
            0 -1 94 -1.3127153739333153e-02</internalNodes>
          <leafValues>
            5.5213218927383423e-01 -1.2877625226974487e-01</leafValues></_>
        <_>
          <internalNodes>
            0 -1 139 5.0715222023427486e-03</internalNodes>
          <leafValues>
            1.2252141535282135e-01 -8.0584889650344849e-01</leafValues></_>
        <_>
          <internalNodes>
            0 -1 246 4.4938805513083935e-03</internalNodes>
          <leafValues>
            -1.8447816371917725e-01 3.7196239829063416e-01</leafValues></_>
        <_>
          <internalNodes>
            0 -1 138 -3.2505425624549389e-03</internalNodes>
          <leafValues>
            -7.5464594364166260e-01 1.1680462956428528e-01</leafValues></_>
        <_>
          <internalNodes>
            0 -1 300 3.1385239213705063e-02</internalNodes>
          <leafValues>
            -1.6907986998558044e-01 4.3078657984733582e-01</leafValues></_>
        <_>
          <internalNodes>
            0 -1 294 2.3745208978652954e-02</internalNodes>
          <leafValues>
            -1.0432514548301697e-01 4.9197453260421753e-01</leafValues></_>
        <_>
          <internalNodes>
            0 -1 151 -1.0291363578289747e-03</internalNodes>
          <leafValues>
            3.5352805256843567e-01 -1.8294084072113037e-01</leafValues></_>
        <_>
          <internalNodes>
            0 -1 125 -2.5271132588386536e-02</internalNodes>
          <leafValues>
            -7.7181506156921387e-01 6.6839136183261871e-02</leafValues></_>
        <_>
          <internalNodes>
            0 -1 149 2.8322846628725529e-03</internalNodes>
          <leafValues>
            -2.1542406082153320e-01 2.8153827786445618e-01</leafValues></_>
        <_>
          <internalNodes>
            0 -1 74 8.6275637149810791e-03</internalNodes>
          <leafValues>
            -1.3344040513038635e-01 4.5648911595344543e-01</leafValues></_>
        <_>
          <internalNodes>
            0 -1 30 -3.0839890241622925e-03</internalNodes>
          <leafValues>
            3.0020958185195923e-01 -1.8461279571056366e-01</leafValues></_>
        <_>
          <internalNodes>
            0 -1 208 -3.7664927076548338e-03</internalNodes>
          <leafValues>
            -8.4208434820175171e-01 8.0840900540351868e-02</leafValues></_></weakClassifiers></_>
    <!-- stage 7 -->
    <_>
      <maxWeakCount>23</maxWeakCount>
      <stageThreshold>-2.0168149471282959e+00</stageThreshold>
      <weakClassifiers>
        <_>
          <internalNodes>
            0 -1 18 -1.2966841459274292e-01</internalNodes>
          <leafValues>
            -6.8181820213794708e-02 -7.8288257122039795e-01</leafValues></_>
        <_>
          <internalNodes>
            0 -1 108 -4.4760527089238167e-04</internalNodes>
          <leafValues>
            3.4076131880283356e-02 -4.7750526666641235e-01</leafValues></_>
        <_>
          <internalNodes>
            0 -1 249 -1.5388339757919312e-02</internalNodes>
          <leafValues>
            4.6295505762100220e-01 -1.6876767575740814e-01</leafValues></_>
        <_>
          <internalNodes>
            0 -1 231 -1.6184487321879715e-04</internalNodes>
          <leafValues>
            1.8552511930465698e-01 -3.8286259770393372e-01</leafValues></_>
        <_>
          <internalNodes>
            0 -1 206 8.3532109856605530e-02</internalNodes>
          <leafValues>
            -1.6589380800724030e-01 3.7232944369316101e-01</leafValues></_>
        <_>
          <internalNodes>
            0 -1 16 2.8220480680465698e-01</internalNodes>
          <leafValues>
            -1.0429746657609940e-01 5.3839761018753052e-01</leafValues></_>
        <_>
          <internalNodes>
            0 -1 26 -1.9571274518966675e-01</internalNodes>
          <leafValues>
            3.5752776265144348e-01 -1.8543565273284912e-01</leafValues></_>
        <_>
          <internalNodes>
            0 -1 236 4.8726946115493774e-02</internalNodes>
          <leafValues>
            1.2199784070253372e-01 -5.6805890798568726e-01</leafValues></_>
        <_>
          <internalNodes>
            0 -1 127 -1.5618115663528442e-01</internalNodes>
          <leafValues>
            3.8889527320861816e-01 -1.6292275488376617e-01</leafValues></_>
        <_>
          <internalNodes>
            0 -1 38 3.3275894820690155e-02</internalNodes>
          <leafValues>
            -1.3257396221160889e-01 4.8097008466720581e-01</leafValues></_>
        <_>
          <internalNodes>
            0 -1 48 -1.1364005506038666e-02</internalNodes>
          <leafValues>
            4.5624744892120361e-01 -1.5784782171249390e-01</leafValues></_>
        <_>
          <internalNodes>
            0 -1 106 -3.3758461475372314e-02</internalNodes>
          <leafValues>
            -8.9316076040267944e-01 4.9284361302852631e-02</leafValues></_>
        <_>
          <internalNodes>
            0 -1 161 -1.6692274948582053e-04</internalNodes>
          <leafValues>
            1.8394379317760468e-01 -3.2042747735977173e-01</leafValues></_>
        <_>
          <internalNodes>
            0 -1 80 1.7714463174343109e-02</internalNodes>
          <leafValues>
            -1.2939611077308655e-01 4.1900283098220825e-01</leafValues></_>
        <_>
          <internalNodes>
            0 -1 202 -1.8661139765754342e-03</internalNodes>
          <leafValues>
            -7.7891892194747925e-01 7.5945131480693817e-02</leafValues></_>
        <_>
          <internalNodes>
            0 -1 245 -8.0987187102437019e-03</internalNodes>
          <leafValues>
            4.8230901360511780e-01 -1.2590651214122772e-01</leafValues></_>
        <_>
          <internalNodes>
            0 -1 233 -7.1573453024029732e-03</internalNodes>
          <leafValues>
            4.8834931850433350e-01 -1.1727795749902725e-01</leafValues></_>
        <_>
          <internalNodes>
            0 -1 215 5.1550348289310932e-03</internalNodes>
          <leafValues>
            -1.5046671032905579e-01 3.8279581069946289e-01</leafValues></_>
        <_>
          <internalNodes>
            0 -1 29 -1.3864067196846008e-01</internalNodes>
          <leafValues>
            -7.7609401941299438e-01 6.5882928669452667e-02</leafValues></_>
        <_>
          <internalNodes>
            0 -1 230 1.9256162922829390e-03</internalNodes>
          <leafValues>
            5.2031744271516800e-02 -7.7561700344085693e-01</leafValues></_>
        <_>
          <internalNodes>
            0 -1 31 2.2967062890529633e-02</internalNodes>
          <leafValues>
            -1.0638281702995300e-01 5.1088333129882812e-01</leafValues></_>
        <_>
          <internalNodes>
            0 -1 53 1.5196552500128746e-02</internalNodes>
          <leafValues>
            -1.1986887454986572e-01 4.2628419399261475e-01</leafValues></_>
        <_>
          <internalNodes>
            0 -1 50 1.0555934906005859e-01</internalNodes>
          <leafValues>
            8.6929127573966980e-02 -6.5156006813049316e-01</leafValues></_></weakClassifiers></_>
    <!-- stage 8 -->
    <_>
      <maxWeakCount>21</maxWeakCount>
      <stageThreshold>-1.9647856950759888e+00</stageThreshold>
      <weakClassifiers>
        <_>
          <internalNodes>
            0 -1 273 -5.7599827647209167e-02</internalNodes>
          <leafValues>
            3.0694669112563133e-02 -7.8292435407638550e-01</leafValues></_>
        <_>
          <internalNodes>
            0 -1 112 -9.7679253667593002e-04</internalNodes>
          <leafValues>
            -8.0935364961624146e-01 -1.3719284534454346e-01</leafValues></_>
        <_>
          <internalNodes>
            0 -1 214 -7.1759719867259264e-04</internalNodes>
          <leafValues>
            2.2349072992801666e-01 -2.6637196540832520e-01</leafValues></_>
        <_>
          <internalNodes>
            0 -1 285 -1.0953949531540275e-03</internalNodes>
          <leafValues>
            -4.5757851004600525e-01 1.5778511762619019e-01</leafValues></_>
        <_>
          <internalNodes>
            0 -1 286 1.2930005323141813e-03</internalNodes>
          <leafValues>
            1.6963222622871399e-01 -5.3813445568084717e-01</leafValues></_>
        <_>
          <internalNodes>
            0 -1 68 9.2332195490598679e-03</internalNodes>
          <leafValues>
            -1.5376040339469910e-01 3.9750656485557556e-01</leafValues></_>
        <_>
          <internalNodes>
            0 -1 73 -7.3970854282379150e-03</internalNodes>
          <leafValues>
            4.4940102100372314e-01 -1.4938724040985107e-01</leafValues></_>
        <_>
          <internalNodes>
            0 -1 113 3.8533539045602083e-03</internalNodes>
          <leafValues>
            9.4368346035480499e-02 -8.7285602092742920e-01</leafValues></_>
        <_>
          <internalNodes>
            0 -1 169 -1.0786072816699743e-03</internalNodes>
          <leafValues>
            -6.7704814672470093e-01 4.6012077480554581e-02</leafValues></_>
        <_>
          <internalNodes>
            0 -1 167 -5.5505290220025927e-05</internalNodes>
          <leafValues>
            1.8947568535804749e-01 -3.0982282757759094e-01</leafValues></_>
        <_>
          <internalNodes>
            0 -1 102 9.4752227887511253e-03</internalNodes>
          <leafValues>
            -1.2670302391052246e-01 4.8571053147315979e-01</leafValues></_>
        <_>
          <internalNodes>
            0 -1 55 5.6830649264156818e-03</internalNodes>
          <leafValues>
            -1.6958275437355042e-01 4.0537104010581970e-01</leafValues></_>
        <_>
          <internalNodes>
            0 -1 150 -2.1836683154106140e-02</internalNodes>
          <leafValues>
            -6.8285369873046875e-01 8.5141167044639587e-02</leafValues></_>
        <_>
          <internalNodes>
            0 -1 8 -2.8831964358687401e-02</internalNodes>
          <leafValues>
            3.8422918319702148e-01 -1.4351841807365417e-01</leafValues></_>
        <_>
          <internalNodes>
            0 -1 263 -3.2497085630893707e-02</internalNodes>
          <leafValues>
            3.8109838962554932e-01 -1.6113680601119995e-01</leafValues></_>
        <_>
          <internalNodes>
            0 -1 128 -1.6548864077776670e-03</internalNodes>
          <leafValues>
            3.6285918951034546e-01 -1.3962531089782715e-01</leafValues></_>
        <_>
          <internalNodes>
            0 -1 157 -8.9604733511805534e-04</internalNodes>
          <leafValues>
            3.2114526629447937e-01 -1.7601701617240906e-01</leafValues></_>
        <_>
          <internalNodes>
            0 -1 171 -1.8266515107825398e-03</internalNodes>
          <leafValues>
            -6.5148669481277466e-01 8.3841279149055481e-02</leafValues></_>
        <_>
          <internalNodes>
            0 -1 229 1.4441633829846978e-03</internalNodes>
          <leafValues>
            -2.2955971956253052e-01 2.3315595090389252e-01</leafValues></_>
        <_>
          <internalNodes>
            0 -1 2 -1.3194531202316284e-03</internalNodes>
          <leafValues>
            -4.1007161140441895e-01 1.3322697579860687e-01</leafValues></_>
        <_>
          <internalNodes>
            0 -1 1 1.9744588062167168e-03</internalNodes>
          <leafValues>
            1.1633137613534927e-01 -5.0003695487976074e-01</leafValues></_></weakClassifiers></_>
    <!-- stage 9 -->
    <_>
      <maxWeakCount>24</maxWeakCount>
      <stageThreshold>-1.9778854846954346e+00</stageThreshold>
      <weakClassifiers>
        <_>
          <internalNodes>
            0 -1 259 5.1202327013015747e-02</internalNodes>
          <leafValues>
            -7.7428108453750610e-01 1.4027149975299835e-01</leafValues></_>
        <_>
          <internalNodes>
            0 -1 111 -4.8422367399325594e-05</internalNodes>
          <leafValues>
            -7.0811241865158081e-02 -5.9723514318466187e-01</leafValues></_>
        <_>
          <internalNodes>
            0 -1 153 -3.9789960719645023e-03</internalNodes>
          <leafValues>
            -5.8972150087356567e-01 8.9153103530406952e-02</leafValues></_>
        <_>
          <internalNodes>
            0 -1 86 1.0082876309752464e-02</internalNodes>
          <leafValues>
            8.7214723229408264e-02 -7.5926089286804199e-01</leafValues></_>
        <_>
          <internalNodes>
            0 -1 237 -6.4437980763614178e-03</internalNodes>
          <leafValues>
            4.4015750288963318e-01 -1.3539019227027893e-01</leafValues></_>
        <_>
          <internalNodes>
            0 -1 234 3.5664336755871773e-03</internalNodes>
          <leafValues>
            -1.6200593113899231e-01 4.0715870261192322e-01</leafValues></_>
        <_>
          <internalNodes>
            0 -1 183 3.6286409012973309e-03</internalNodes>
          <leafValues>
            7.1875728666782379e-02 -8.2871216535568237e-01</leafValues></_>
        <_>
          <internalNodes>
            0 -1 286 -8.5190258687362075e-04</internalNodes>
          <leafValues>
            -3.9691731333732605e-01 1.1775782704353333e-01</leafValues></_>
        <_>
          <internalNodes>
            0 -1 285 5.3541106171905994e-04</internalNodes>
          <leafValues>
            1.5589575469493866e-01 -4.3603104352951050e-01</leafValues></_>
        <_>
          <internalNodes>
            0 -1 291 1.2369722127914429e-02</internalNodes>
          <leafValues>
            -1.4934574067592621e-01 3.7845107913017273e-01</leafValues></_>
        <_>
          <internalNodes>
            0 -1 219 -5.2660079672932625e-03</internalNodes>
          <leafValues>
            4.0182968974113464e-01 -1.3641647994518280e-01</leafValues></_>
        <_>
          <internalNodes>
            0 -1 190 6.0724876821041107e-03</internalNodes>
          <leafValues>
            -1.4889863133430481e-01 3.6456775665283203e-01</leafValues></_>
        <_>
          <internalNodes>
            0 -1 7 -1.2425485253334045e-01</internalNodes>
          <leafValues>
            3.4195372462272644e-01 -1.4768451452255249e-01</leafValues></_>
        <_>
          <internalNodes>
            0 -1 19 -6.7461043596267700e-02</internalNodes>
          <leafValues>
            4.4493782520294189e-01 -1.4764052629470825e-01</leafValues></_>
        <_>
          <internalNodes>
            0 -1 71 2.4348117411136627e-02</internalNodes>
          <leafValues>
            8.9187324047088623e-02 -5.7294201850891113e-01</leafValues></_>
        <_>
          <internalNodes>
            0 -1 39 -1.9266393035650253e-02</internalNodes>
          <leafValues>
            4.0381979942321777e-01 -1.3510529696941376e-01</leafValues></_>
        <_>
          <internalNodes>
            0 -1 105 -4.6404828317463398e-03</internalNodes>
          <leafValues>
            -7.9488795995712280e-01 6.7071162164211273e-02</leafValues></_>
        <_>
          <internalNodes>
            0 -1 156 7.0846462622284889e-03</internalNodes>
          <leafValues>
            6.7588955163955688e-02 -6.1628746986389160e-01</leafValues></_>
        <_>
          <internalNodes>
            0 -1 264 1.2454997748136520e-02</internalNodes>
          <leafValues>
            -1.3034081459045410e-01 4.4887256622314453e-01</leafValues></_>
        <_>
          <internalNodes>
            0 -1 91 -1.0420936159789562e-02</internalNodes>
          <leafValues>
            2.6643994450569153e-01 -1.9498828053474426e-01</leafValues></_>
        <_>
          <internalNodes>
            0 -1 90 8.7425652891397476e-03</internalNodes>
          <leafValues>
            -8.6333096027374268e-02 6.4895522594451904e-01</leafValues></_>
        <_>
          <internalNodes>
            0 -1 133 2.0299074240028858e-03</internalNodes>
          <leafValues>
            6.6219337284564972e-02 -8.7835246324539185e-01</leafValues></_>
        <_>
          <internalNodes>
            0 -1 121 -5.5392701178789139e-03</internalNodes>
          <leafValues>
            3.5411641001701355e-01 -1.5592908859252930e-01</leafValues></_>
        <_>
          <internalNodes>
            0 -1 165 -3.6165192723274231e-03</internalNodes>
          <leafValues>
            -8.3377206325531006e-01 7.0385389029979706e-02</leafValues></_></weakClassifiers></_>
    <!-- stage 10 -->
    <_>
      <maxWeakCount>27</maxWeakCount>
      <stageThreshold>-1.9871882200241089e+00</stageThreshold>
      <weakClassifiers>
        <_>
          <internalNodes>
            0 -1 284 -7.2927668690681458e-02</internalNodes>
          <leafValues>
            1.7711171507835388e-01 -7.6933443546295166e-01</leafValues></_>
        <_>
          <internalNodes>
            0 -1 117 2.1884629502892494e-02</internalNodes>
          <leafValues>
            -3.2676544785499573e-01 3.6461937427520752e-01</leafValues></_>
        <_>
          <internalNodes>
            0 -1 191 1.1498337611556053e-02</internalNodes>
          <leafValues>
            -1.3861337304115295e-01 4.1549950838088989e-01</leafValues></_>
        <_>
          <internalNodes>
            0 -1 297 4.6997121535241604e-04</internalNodes>
          <leafValues>
            1.2382336705923080e-01 -4.4522053003311157e-01</leafValues></_>
        <_>
          <internalNodes>
            0 -1 297 -4.3089775135740638e-04</internalNodes>
          <leafValues>
            -4.9846068024635315e-01 1.4688646793365479e-01</leafValues></_>
        <_>
          <internalNodes>
            0 -1 278 1.9628379493951797e-02</internalNodes>
          <leafValues>
            -1.0911415517330170e-01 4.9854344129562378e-01</leafValues></_>
        <_>
          <internalNodes>
            0 -1 269 -1.4401128515601158e-02</internalNodes>
          <leafValues>
            4.8559790849685669e-01 -1.1524672806262970e-01</leafValues></_>
        <_>
          <internalNodes>
            0 -1 181 -2.6109628379344940e-04</internalNodes>
          <leafValues>
            2.0531053841114044e-01 -3.4310686588287354e-01</leafValues></_>
        <_>
          <internalNodes>
            0 -1 186 1.3585627079010010e-01</internalNodes>
          <leafValues>
            -1.8641769886016846e-01 3.2837578654289246e-01</leafValues></_>
        <_>
          <internalNodes>
            0 -1 11 1.1230072379112244e-01</internalNodes>
          <leafValues>
            -7.4168197810649872e-02 5.5047541856765747e-01</leafValues></_>
        <_>
          <internalNodes>
            0 -1 63 4.5466748997569084e-03</internalNodes>
          <leafValues>
            -1.5114998817443848e-01 3.3195462822914124e-01</leafValues></_>
        <_>
          <internalNodes>
            0 -1 27 2.3684967309236526e-02</internalNodes>
          <leafValues>
            -1.1639320850372314e-01 4.4122675061225891e-01</leafValues></_>
        <_>
          <internalNodes>
            0 -1 107 -1.4914108440279961e-02</internalNodes>
          <leafValues>
            -6.4875257015228271e-01 8.2209549844264984e-02</leafValues></_>
        <_>
          <internalNodes>
            0 -1 232 7.9593118280172348e-03</internalNodes>
          <leafValues>
            -1.3772617280483246e-01 3.3359330892562866e-01</leafValues></_>
        <_>
          <internalNodes>
            0 -1 103 1.7777010798454285e-02</internalNodes>
          <leafValues>
            8.0064795911312103e-02 -6.1099427938461304e-01</leafValues></_>
        <_>
          <internalNodes>
            0 -1 114 2.0513048395514488e-02</internalNodes>
          <leafValues>
            -6.7828975617885590e-02 7.6913380622863770e-01</leafValues></_>
        <_>
          <internalNodes>
            0 -1 143 1.3152085011824965e-03</internalNodes>
          <leafValues>
            8.3517573773860931e-02 -5.8823502063751221e-01</leafValues></_>
        <_>
          <internalNodes>
            0 -1 45 -1.9625242799520493e-02</internalNodes>
          <leafValues>
            4.1719648241996765e-01 -1.1636792868375778e-01</leafValues></_>
        <_>
          <internalNodes>
            0 -1 42 -2.4877551943063736e-02</internalNodes>
          <leafValues>
            5.0473392009735107e-01 -8.8282570242881775e-02</leafValues></_>
        <_>
          <internalNodes>
            0 -1 194 4.0228486061096191e-02</internalNodes>
          <leafValues>
            8.8180966675281525e-02 -6.2608087062835693e-01</leafValues></_>
        <_>
          <internalNodes>
            0 -1 56 -1.1500700376927853e-02</internalNodes>
          <leafValues>
            4.0211504697799683e-01 -1.3048136234283447e-01</leafValues></_>
        <_>
          <internalNodes>
            0 -1 175 -9.4829674344509840e-04</internalNodes>
          <leafValues>
            1.2848769128322601e-01 -3.8850367069244385e-01</leafValues></_>
        <_>
          <internalNodes>
            0 -1 28 -3.2487109303474426e-02</internalNodes>
          <leafValues>
            4.1738471388816833e-01 -1.1823295801877975e-01</leafValues></_>
        <_>
          <internalNodes>
            0 -1 4 -1.4143363805487752e-03</internalNodes>
          <leafValues>
            -4.7515904903411865e-01 9.7832612693309784e-02</leafValues></_>
        <_>
          <internalNodes>
            0 -1 3 5.3999933879822493e-04</internalNodes>
          <leafValues>
            1.0806475579738617e-01 -4.2213886976242065e-01</leafValues></_>
        <_>
          <internalNodes>
            0 -1 226 -9.8623000085353851e-03</internalNodes>
          <leafValues>
            -6.5845751762390137e-01 6.2640324234962463e-02</leafValues></_>
        <_>
          <internalNodes>
            0 -1 158 2.0715785212814808e-03</internalNodes>
          <leafValues>
            -1.6410548985004425e-01 2.7379357814788818e-01</leafValues></_></weakClassifiers></_>
    <!-- stage 11 -->
    <_>
      <maxWeakCount>29</maxWeakCount>
      <stageThreshold>-1.9319374561309814e+00</stageThreshold>
      <weakClassifiers>
        <_>
          <internalNodes>
            0 -1 250 -2.9773268848657608e-02</internalNodes>
          <leafValues>
            -1.9701810181140900e-01 -7.8733074665069580e-01</leafValues></_>
        <_>
          <internalNodes>
            0 -1 270 1.6514476388692856e-02</internalNodes>
          <leafValues>
            -3.5030236840248108e-01 2.3195353150367737e-01</leafValues></_>
        <_>
          <internalNodes>
            0 -1 256 8.8705699890851974e-03</internalNodes>
          <leafValues>
            -1.5008391439914703e-01 3.3149152994155884e-01</leafValues></_>
        <_>
          <internalNodes>
            0 -1 177 4.8556423280388117e-05</internalNodes>
          <leafValues>
            -3.3971959352493286e-01 1.4224971830844879e-01</leafValues></_>
        <_>
          <internalNodes>
            0 -1 155 -6.3447533175349236e-03</internalNodes>
          <leafValues>
            4.3368414044380188e-01 -1.1269051581621170e-01</leafValues></_>
        <_>
          <internalNodes>
            0 -1 211 4.8233317211270332e-03</internalNodes>
          <leafValues>
            6.5100669860839844e-02 -8.2313448190689087e-01</leafValues></_>
        <_>
          <internalNodes>
            0 -1 154 4.2485231533646584e-03</internalNodes>
          <leafValues>
            -1.3205805420875549e-01 3.5410693287849426e-01</leafValues></_>
        <_>
          <internalNodes>
            0 -1 225 3.2813120633363724e-03</internalNodes>
          <leafValues>
            1.0933209955692291e-01 -6.7193901538848877e-01</leafValues></_>
        <_>
          <internalNodes>
            0 -1 62 2.8534034267067909e-02</internalNodes>
          <leafValues>
            -1.2078541517257690e-01 4.9822705984115601e-01</leafValues></_>
        <_>
          <internalNodes>
            0 -1 26 -2.4157363176345825e-01</internalNodes>
          <leafValues>
            3.6083424091339111e-01 -1.4404894411563873e-01</leafValues></_>
        <_>
          <internalNodes>
            0 -1 293 1.6443230211734772e-02</internalNodes>
          <leafValues>
            -9.5423549413681030e-02 4.1510996222496033e-01</leafValues></_>
        <_>
          <internalNodes>
            0 -1 252 9.0116495266556740e-03</internalNodes>
          <leafValues>
            -1.4903347194194794e-01 3.3478859066963196e-01</leafValues></_>
        <_>
          <internalNodes>
            0 -1 15 4.1274791955947876e-01</internalNodes>
          <leafValues>
            -1.4788432419300079e-01 4.0992182493209839e-01</leafValues></_>
        <_>
          <internalNodes>
            0 -1 9 -3.0947811901569366e-03</internalNodes>
          <leafValues>
            3.2066202163696289e-01 -1.5276606380939484e-01</leafValues></_>
        <_>
          <internalNodes>
            0 -1 248 3.6623512860387564e-03</internalNodes>
          <leafValues>
            -1.1024500429630280e-01 3.5934787988662720e-01</leafValues></_>
        <_>
          <internalNodes>
            0 -1 173 1.2105221394449472e-03</internalNodes>
          <leafValues>
            7.3496557772159576e-02 -6.4840352535247803e-01</leafValues></_>
        <_>
          <internalNodes>
            0 -1 244 -4.4089751318097115e-03</internalNodes>
          <leafValues>
            3.8424253463745117e-01 -1.3304553925991058e-01</leafValues></_>
        <_>
          <internalNodes>
            0 -1 0 -2.3544786381535232e-04</internalNodes>
          <leafValues>
            -3.4008964896202087e-01 1.3375918567180634e-01</leafValues></_>
        <_>
          <internalNodes>
            0 -1 0 3.7591828731819987e-04</internalNodes>
          <leafValues>
            1.1063043028116226e-01 -3.7404781579971313e-01</leafValues></_>
        <_>
          <internalNodes>
            0 -1 198 1.8724604742601514e-03</internalNodes>
          <leafValues>
            -1.8570834398269653e-01 2.4634584784507751e-01</leafValues></_>
        <_>
          <internalNodes>
            0 -1 33 -2.1708853542804718e-02</internalNodes>
          <leafValues>
            3.0523020029067993e-01 -1.7553420364856720e-01</leafValues></_>
        <_>
          <internalNodes>
            0 -1 180 5.4952496429905295e-04</internalNodes>
          <leafValues>
            -2.5019651651382446e-01 1.9450576603412628e-01</leafValues></_>
        <_>
          <internalNodes>
            0 -1 79 -7.7722653746604919e-02</internalNodes>
          <leafValues>
            -7.4424958229064941e-01 5.1158830523490906e-02</leafValues></_>
        <_>
          <internalNodes>
            0 -1 238 -4.9274750053882599e-02</internalNodes>
          <leafValues>
            -6.0825645923614502e-01 6.1130605638027191e-02</leafValues></_>
        <_>
          <internalNodes>
            0 -1 274 1.7395995557308197e-02</internalNodes>
          <leafValues>
            -9.4373978674411774e-02 4.6463683247566223e-01</leafValues></_>
        <_>
          <internalNodes>
            0 -1 224 -4.5450826291926205e-05</internalNodes>
          <leafValues>
            1.6731163859367371e-01 -2.6251533627510071e-01</leafValues></_>
        <_>
          <internalNodes>
            0 -1 275 5.5273133330047131e-04</internalNodes>
          <leafValues>
            1.1178201436996460e-01 -3.9470028877258301e-01</leafValues></_>
        <_>
          <internalNodes>
            0 -1 280 -2.0689772441983223e-02</internalNodes>
          <leafValues>
            4.9947351217269897e-01 -8.4271140396595001e-02</leafValues></_>
        <_>
          <internalNodes>
            0 -1 267 -2.3759055882692337e-02</internalNodes>
          <leafValues>
            5.4021292924880981e-01 -7.5998701155185699e-02</leafValues></_></weakClassifiers></_>
    <!-- stage 12 -->
    <_>
      <maxWeakCount>27</maxWeakCount>
      <stageThreshold>-1.8305901288986206e+00</stageThreshold>
      <weakClassifiers>
        <_>
          <internalNodes>
            0 -1 145 9.6453189849853516e-02</internalNodes>
          <leafValues>
            -7.9839271306991577e-01 -3.1878957152366638e-01</leafValues></_>
        <_>
          <internalNodes>
            0 -1 109 4.0583097143098712e-04</internalNodes>
          <leafValues>
            -5.1344817876815796e-01 -5.2632234990596771e-02</leafValues></_>
        <_>
          <internalNodes>
            0 -1 61 -1.9278928637504578e-02</internalNodes>
          <leafValues>
            3.7521591782569885e-01 -1.5528939664363861e-01</leafValues></_>
        <_>
          <internalNodes>
            0 -1 159 5.5312402546405792e-03</internalNodes>
          <leafValues>
            -1.8492792546749115e-01 3.1265333294868469e-01</leafValues></_>
        <_>
          <internalNodes>
            0 -1 40 -2.1231578662991524e-02</internalNodes>
          <leafValues>
            5.1548814773559570e-01 -8.6374677717685699e-02</leafValues></_>
        <_>
          <internalNodes>
            0 -1 97 -5.9779821895062923e-03</internalNodes>
          <leafValues>
            3.8205173611640930e-01 -1.1690554767847061e-01</leafValues></_>
        <_>
          <internalNodes>
            0 -1 136 3.2197507098317146e-03</internalNodes>
          <leafValues>
            1.1864003539085388e-01 -7.8559112548828125e-01</leafValues></_>
        <_>
          <internalNodes>
            0 -1 96 1.4444603584706783e-03</internalNodes>
          <leafValues>
            -2.2386169433593750e-01 2.5424104928970337e-01</leafValues></_>
        <_>
          <internalNodes>
            0 -1 57 -6.6472232341766357e-02</internalNodes>
          <leafValues>
            -6.4619815349578857e-01 1.0908021032810211e-01</leafValues></_>
        <_>
          <internalNodes>
            0 -1 19 5.7151861488819122e-02</internalNodes>
          <leafValues>
            -1.4956481754779816e-01 2.8674769401550293e-01</leafValues></_>
        <_>
          <internalNodes>
            0 -1 141 2.0601712167263031e-03</internalNodes>
          <leafValues>
            -2.7568581700325012e-01 1.8990452587604523e-01</leafValues></_>
        <_>
          <internalNodes>
            0 -1 85 -1.1908443644642830e-02</internalNodes>
          <leafValues>
            5.3804421424865723e-01 -1.0168237239122391e-01</leafValues></_>
        <_>
          <internalNodes>
            0 -1 289 3.0496721155941486e-03</internalNodes>
          <leafValues>
            -1.2417133897542953e-01 3.2225391268730164e-01</leafValues></_>
        <_>
          <internalNodes>
            0 -1 281 -1.7728824168443680e-02</internalNodes>
          <leafValues>
            4.3182811141014099e-01 -1.0704429447650909e-01</leafValues></_>
        <_>
          <internalNodes>
            0 -1 223 5.4190317168831825e-03</internalNodes>
          <leafValues>
            9.4543240964412689e-02 -4.7526809573173523e-01</leafValues></_>
        <_>
          <internalNodes>
            0 -1 95 2.9019348323345184e-02</internalNodes>
          <leafValues>
            4.6473812311887741e-02 -7.2777283191680908e-01</leafValues></_>
        <_>
          <internalNodes>
            0 -1 271 1.8690709024667740e-02</internalNodes>
          <leafValues>
            -1.2599109113216400e-01 3.7787228822708130e-01</leafValues></_>
        <_>
          <internalNodes>
            0 -1 89 3.8825669325888157e-03</internalNodes>
          <leafValues>
            6.1933558434247971e-02 -8.5985738039016724e-01</leafValues></_>
        <_>
          <internalNodes>
            0 -1 10 1.1176084727048874e-01</internalNodes>
          <leafValues>
            -1.3187982141971588e-01 3.7039372324943542e-01</leafValues></_>
        <_>
          <internalNodes>
            0 -1 49 -6.5654274076223373e-03</internalNodes>
          <leafValues>
            2.9907339811325073e-01 -1.4401131868362427e-01</leafValues></_>
        <_>
          <internalNodes>
            0 -1 195 1.9429260864853859e-03</internalNodes>
          <leafValues>
            -1.1989410221576691e-01 3.5214978456497192e-01</leafValues></_>
        <_>
          <internalNodes>
            0 -1 192 -2.9131323099136353e-03</internalNodes>
          <leafValues>
            2.7747687697410583e-01 -1.6669130325317383e-01</leafValues></_>
        <_>
          <internalNodes>
            0 -1 253 -1.9492005230858922e-04</internalNodes>
          <leafValues>
            1.7436540126800537e-01 -2.4386392533779144e-01</leafValues></_>
        <_>
          <internalNodes>
            0 -1 251 9.4235017895698547e-03</internalNodes>
          <leafValues>
            6.8204730749130249e-02 -6.2204319238662720e-01</leafValues></_>
        <_>
          <internalNodes>
            0 -1 299 -2.9208027990534902e-04</internalNodes>
          <leafValues>
            -3.3559206128120422e-01 1.1460993438959122e-01</leafValues></_>
        <_>
          <internalNodes>
            0 -1 162 4.2097426950931549e-02</internalNodes>
          <leafValues>
            7.1331635117530823e-02 -5.3229302167892456e-01</leafValues></_>
        <_>
          <internalNodes>
            0 -1 83 -2.2034278139472008e-02</internalNodes>
          <leafValues>
            3.3229145407676697e-01 -1.2850397825241089e-01</leafValues></_></weakClassifiers></_>
    <!-- stage 13 -->
    <_>
      <maxWeakCount>32</maxWeakCount>
      <stageThreshold>-1.9579094648361206e+00</stageThreshold>
      <weakClassifiers>
        <_>
          <internalNodes>
            0 -1 14 -1.3262479007244110e-01</internalNodes>
          <leafValues>
            -2.3950617015361786e-01 -7.7698785066604614e-01</leafValues></_>
        <_>
          <internalNodes>
            0 -1 258 1.9570754840970039e-02</internalNodes>
          <leafValues>
            -3.7800049781799316e-01 1.0143840312957764e-01</leafValues></_>
        <_>
          <internalNodes>
            0 -1 131 -4.7670826461398974e-05</internalNodes>
          <leafValues>
            1.5500259399414062e-01 -2.7458813786506653e-01</leafValues></_>
        <_>
          <internalNodes>
            0 -1 87 5.3459174523595721e-05</internalNodes>
          <leafValues>
            -2.5034382939338684e-01 1.6892851889133453e-01</leafValues></_>
        <_>
          <internalNodes>
            0 -1 243 1.0218903422355652e-02</internalNodes>
          <leafValues>
            -6.5489612519741058e-02 4.3725359439849854e-01</leafValues></_>
        <_>
          <internalNodes>
            0 -1 216 1.0294371284544468e-02</internalNodes>
          <leafValues>
            -1.1959803849458694e-01 3.6209684610366821e-01</leafValues></_>
        <_>
          <internalNodes>
            0 -1 146 1.2483146972954273e-02</internalNodes>
          <leafValues>
            -1.2454263865947723e-01 3.5477259755134583e-01</leafValues></_>
        <_>
          <internalNodes>
            0 -1 266 1.1004275642335415e-02</internalNodes>
          <leafValues>
            6.9415479898452759e-02 -6.1793678998947144e-01</leafValues></_>
        <_>
          <internalNodes>
            0 -1 239 -3.3508506603538990e-03</internalNodes>
          <leafValues>
            -6.0240137577056885e-01 8.5569418966770172e-02</leafValues></_>
        <_>
          <internalNodes>
            0 -1 102 1.2564352713525295e-02</internalNodes>
          <leafValues>
            -9.5115177333354950e-02 4.9388086795806885e-01</leafValues></_>
        <_>
          <internalNodes>
            0 -1 241 8.9528895914554596e-03</internalNodes>
          <leafValues>
            5.8923713862895966e-02 -7.1068942546844482e-01</leafValues></_>
        <_>
          <internalNodes>
            0 -1 84 -5.8978502638638020e-03</internalNodes>
          <leafValues>
            2.5129109621047974e-01 -1.5812340378761292e-01</leafValues></_>
        <_>
          <internalNodes>
            0 -1 277 1.7463434487581253e-02</internalNodes>
          <leafValues>
            -1.1659013479948044e-01 3.4446373581886292e-01</leafValues></_>
        <_>
          <internalNodes>
            0 -1 257 2.7093824464827776e-03</internalNodes>
          <leafValues>
            -1.4246633648872375e-01 3.7879750132560730e-01</leafValues></_>
        <_>
          <internalNodes>
            0 -1 228 4.5158001594245434e-03</internalNodes>
          <leafValues>
            5.7930335402488708e-02 -7.8410702943801880e-01</leafValues></_>
        <_>
          <internalNodes>
            0 -1 242 1.6632450278848410e-03</internalNodes>
          <leafValues>
            -2.1695855259895325e-01 1.9794771075248718e-01</leafValues></_>
        <_>
          <internalNodes>
            0 -1 168 -9.4374455511569977e-03</internalNodes>
          <leafValues>
            -7.4431014060974121e-01 5.7647176086902618e-02</leafValues></_>
        <_>
          <internalNodes>
            0 -1 104 -2.2477793972939253e-03</internalNodes>
          <leafValues>
            2.6381713151931763e-01 -1.6639198362827301e-01</leafValues></_>
        <_>
          <internalNodes>
            0 -1 129 -8.9030273258686066e-02</internalNodes>
          <leafValues>
            -6.9437503814697266e-01 6.0651864856481552e-02</leafValues></_>
        <_>
          <internalNodes>
            0 -1 75 1.5335325151681900e-02</internalNodes>
          <leafValues>
            5.5549390614032745e-02 -5.8655709028244019e-01</leafValues></_>
        <_>
          <internalNodes>
            0 -1 46 1.4293458312749863e-02</internalNodes>
          <leafValues>
            -1.0903452336788177e-01 3.6752465367317200e-01</leafValues></_>
        <_>
          <internalNodes>
            0 -1 44 -6.5746372565627098e-03</internalNodes>
          <leafValues>
            3.0114042758941650e-01 -1.3562846183776855e-01</leafValues></_>
        <_>
          <internalNodes>
            0 -1 123 -2.2717293351888657e-02</internalNodes>
          <leafValues>
            -6.2813287973403931e-01 6.1607599258422852e-02</leafValues></_>
        <_>
          <internalNodes>
            0 -1 78 -1.4223119616508484e-01</internalNodes>
          <leafValues>
            -8.2448250055313110e-01 3.9116714149713516e-02</leafValues></_>
        <_>
          <internalNodes>
            0 -1 59 -2.2940495982766151e-02</internalNodes>
          <leafValues>
            4.1913211345672607e-01 -1.0284868627786636e-01</leafValues></_>
        <_>
          <internalNodes>
            0 -1 37 -1.9153531640768051e-02</internalNodes>
          <leafValues>
            3.7303325533866882e-01 -1.1164078116416931e-01</leafValues></_>
        <_>
          <internalNodes>
            0 -1 43 3.7368781864643097e-02</internalNodes>
          <leafValues>
            -7.3189042508602142e-02 5.4848104715347290e-01</leafValues></_>
        <_>
          <internalNodes>
            0 -1 209 -1.4839712530374527e-02</internalNodes>
          <leafValues>
            -8.3765465021133423e-01 5.1798816770315170e-02</leafValues></_>
        <_>
          <internalNodes>
            0 -1 128 -1.7120771808549762e-03</internalNodes>
          <leafValues>
            2.6793432235717773e-01 -1.4236907660961151e-01</leafValues></_>
        <_>
          <internalNodes>
            0 -1 193 -9.6156628569588065e-04</internalNodes>
          <leafValues>
            2.5752678513526917e-01 -1.5318173170089722e-01</leafValues></_>
        <_>
          <internalNodes>
            0 -1 0 -7.5180793646723032e-04</internalNodes>
          <leafValues>
            -4.7985464334487915e-01 8.4348469972610474e-02</leafValues></_>
        <_>
          <internalNodes>
            0 -1 288 -3.9614788256585598e-03</internalNodes>
          <leafValues>
            -4.4831725955009460e-01 7.9293243587017059e-02</leafValues></_></weakClassifiers></_>
    <!-- stage 14 -->
    <_>
      <maxWeakCount>33</maxWeakCount>
      <stageThreshold>-1.9209001064300537e+00</stageThreshold>
      <weakClassifiers>
        <_>
          <internalNodes>
            0 -1 172 -3.7449702620506287e-02</internalNodes>
          <leafValues>
            -3.5452324151992798e-01 -7.8506767749786377e-01</leafValues></_>
        <_>
          <internalNodes>
            0 -1 137 3.2672882080078125e-03</internalNodes>
          <leafValues>
            -4.3330448865890503e-01 -1.1034759692847729e-02</leafValues></_>
        <_>
          <internalNodes>
            0 -1 77 1.3859530910849571e-02</internalNodes>
          <leafValues>
            4.6384591609239578e-02 -7.0225459337234497e-01</leafValues></_>
        <_>
          <internalNodes>
            0 -1 254 1.7371010035276413e-02</internalNodes>
          <leafValues>
            -8.3417028188705444e-02 4.2727035284042358e-01</leafValues></_>
        <_>
          <internalNodes>
            0 -1 221 7.1379188448190689e-03</internalNodes>
          <leafValues>
            -1.2305091321468353e-01 3.9884862303733826e-01</leafValues></_>
        <_>
          <internalNodes>
            0 -1 220 5.4911370389163494e-03</internalNodes>
          <leafValues>
            -1.2036654353141785e-01 3.8281172513961792e-01</leafValues></_>
        <_>
          <internalNodes>
            0 -1 120 -1.5803404152393341e-02</internalNodes>
          <leafValues>
            -4.7421023249626160e-01 8.0685220658779144e-02</leafValues></_>
        <_>
          <internalNodes>
            0 -1 122 6.1811711639165878e-03</internalNodes>
          <leafValues>
            8.8500984013080597e-02 -6.2482529878616333e-01</leafValues></_>
        <_>
          <internalNodes>
            0 -1 200 -4.2911414057016373e-03</internalNodes>
          <leafValues>
            -6.0529309511184692e-01 5.7342238724231720e-02</leafValues></_>
        <_>
          <internalNodes>
            0 -1 184 -6.5603794064372778e-04</internalNodes>
          <leafValues>
            1.9021287560462952e-01 -2.2629168629646301e-01</leafValues></_>
        <_>
          <internalNodes>
            0 -1 124 3.3015101216733456e-03</internalNodes>
          <leafValues>
            -1.3569337129592896e-01 2.8414696455001831e-01</leafValues></_>
        <_>
          <internalNodes>
            0 -1 66 4.0014493279159069e-03</internalNodes>
          <leafValues>
            -1.4098341763019562e-01 2.7958253026008606e-01</leafValues></_>
        <_>
          <internalNodes>
            0 -1 67 -4.1920514777302742e-03</internalNodes>
          <leafValues>
            3.8210925459861755e-01 -1.3896429538726807e-01</leafValues></_>
        <_>
          <internalNodes>
            0 -1 197 8.5228849202394485e-03</internalNodes>
          <leafValues>
            8.6289748549461365e-02 -5.3837805986404419e-01</leafValues></_>
        <_>
          <internalNodes>
            0 -1 58 1.4801839366555214e-02</internalNodes>
          <leafValues>
            -1.0809506475925446e-01 3.9012202620506287e-01</leafValues></_>
        <_>
          <internalNodes>
            0 -1 164 3.1245863065123558e-03</internalNodes>
          <leafValues>
            6.2865063548088074e-02 -7.7592688798904419e-01</leafValues></_>
        <_>
          <internalNodes>
            0 -1 32 3.5002052783966064e-02</internalNodes>
          <leafValues>
            -8.4517270326614380e-02 5.3140360116958618e-01</leafValues></_>
        <_>
          <internalNodes>
            0 -1 51 -2.4156272411346436e-01</internalNodes>
          <leafValues>
            6.6493517160415649e-01 -5.2114222198724747e-02</leafValues></_>
        <_>
          <internalNodes>
            0 -1 20 -5.4314292967319489e-02</internalNodes>
          <leafValues>
            2.9843023419380188e-01 -1.5025390684604645e-01</leafValues></_>
        <_>
          <internalNodes>
            0 -1 64 -2.7600070461630821e-02</internalNodes>
          <leafValues>
            -5.4024296998977661e-01 8.2177355885505676e-02</leafValues></_>
        <_>
          <internalNodes>
            0 -1 262 -2.3458192124962807e-02</internalNodes>
          <leafValues>
            5.1462197303771973e-01 -7.5269132852554321e-02</leafValues></_>
        <_>
          <internalNodes>
            0 -1 296 -7.1843946352601051e-04</internalNodes>
          <leafValues>
            -3.1758540868759155e-01 1.1799116432666779e-01</leafValues></_>
        <_>
          <internalNodes>
            0 -1 21 8.2962796092033386e-02</internalNodes>
          <leafValues>
            -1.4729554951190948e-01 2.5743421912193298e-01</leafValues></_>
        <_>
          <internalNodes>
            0 -1 76 2.5715321302413940e-02</internalNodes>
          <leafValues>
            7.7083930373191833e-02 -5.2205276489257812e-01</leafValues></_>
        <_>
          <internalNodes>
            0 -1 298 3.0870758928358555e-04</internalNodes>
          <leafValues>
            1.2093912065029144e-01 -3.0687943100929260e-01</leafValues></_>
        <_>
          <internalNodes>
            0 -1 217 -1.2178545445203781e-01</internalNodes>
          <leafValues>
            -8.0060887336730957e-01 4.1244253516197205e-02</leafValues></_>
        <_>
          <internalNodes>
            0 -1 13 -1.0147700086236000e-03</internalNodes>
          <leafValues>
            -5.3505098819732666e-01 5.8697719126939774e-02</leafValues></_>
        <_>
          <internalNodes>
            0 -1 47 -1.2731806375086308e-02</internalNodes>
          <leafValues>
            3.2401597499847412e-01 -1.1829191446304321e-01</leafValues></_>
        <_>
          <internalNodes>
            0 -1 69 8.8412165641784668e-03</internalNodes>
          <leafValues>
            -9.5220386981964111e-02 3.6073789000511169e-01</leafValues></_>
        <_>
          <internalNodes>
            0 -1 23 -8.9886859059333801e-03</internalNodes>
          <leafValues>
            2.2476021945476532e-01 -1.6302967071533203e-01</leafValues></_>
        <_>
          <internalNodes>
            0 -1 22 5.3603310137987137e-02</internalNodes>
          <leafValues>
            1.0225944221019745e-01 -3.6990073323249817e-01</leafValues></_>
        <_>
          <internalNodes>
            0 -1 287 2.3281071335077286e-03</internalNodes>
          <leafValues>
            6.0848392546176910e-02 -5.3985285758972168e-01</leafValues></_>
        <_>
          <internalNodes>
            0 -1 17 9.6746074268594384e-04</internalNodes>
          <leafValues>
            -1.5235275030136108e-01 2.3438960313796997e-01</leafValues></_></weakClassifiers></_></stages>
  <features>
    <_>
      <rects>
        <_>
          0 0 2 1 -1.</_>
        <_>
          1 0 1 1 2.</_></rects>
      <tilted>0</tilted></_>
    <_>
      <rects>
        <_>
          0 0 2 3 -1.</_>
        <_>
          1 0 1 3 2.</_></rects>
      <tilted>0</tilted></_>
    <_>
      <rects>
        <_>
          0 0 2 4 -1.</_>
        <_>
          1 0 1 4 2.</_></rects>
      <tilted>0</tilted></_>
    <_>
      <rects>
        <_>
          0 1 2 1 -1.</_>
        <_>
          1 1 1 1 2.</_></rects>
      <tilted>0</tilted></_>
    <_>
      <rects>
        <_>
          0 1 2 2 -1.</_>
        <_>
          1 1 1 2 2.</_></rects>
      <tilted>0</tilted></_>
    <_>
      <rects>
        <_>
          0 1 20 18 -1.</_>
        <_>
          5 1 10 18 2.</_></rects>
      <tilted>0</tilted></_>
    <_>
      <rects>
        <_>
          0 2 20 17 -1.</_>
        <_>
          5 2 10 17 2.</_></rects>
      <tilted>0</tilted></_>
    <_>
      <rects>
        <_>
          0 2 10 18 -1.</_>
        <_>
          5 2 5 18 2.</_></rects>
      <tilted>0</tilted></_>
    <_>
      <rects>
        <_>
          0 11 6 5 -1.</_>
        <_>
          3 11 3 5 2.</_></rects>
      <tilted>0</tilted></_>
    <_>
      <rects>
        <_>
          0 12 4 1 -1.</_>
        <_>
          2 12 2 1 2.</_></rects>
      <tilted>0</tilted></_>
    <_>
      <rects>
        <_>
          0 13 14 7 -1.</_>
        <_>
          7 13 7 7 2.</_></rects>
      <tilted>0</tilted></_>
    <_>
      <rects>
        <_>
          0 15 20 3 -1.</_>
        <_>
          5 15 10 3 2.</_></rects>
      <tilted>0</tilted></_>
    <_>
      <rects>
        <_>
          0 17 20 2 -1.</_>
        <_>
          5 17 10 2 2.</_></rects>
      <tilted>0</tilted></_>
    <_>
      <rects>
        <_>
          0 18 2 2 -1.</_>
        <_>
          0 18 1 1 2.</_>
        <_>
          1 19 1 1 2.</_></rects>
      <tilted>0</tilted></_>
    <_>
      <rects>
        <_>
          0 18 18 2 -1.</_>
        <_>
          6 18 6 2 3.</_></rects>
      <tilted>0</tilted></_>
    <_>
      <rects>
        <_>
          1 2 18 15 -1.</_>
        <_>
          7 7 6 5 9.</_></rects>
      <tilted>0</tilted></_>
    <_>
      <rects>
        <_>
          1 6 18 9 -1.</_>
        <_>
          7 9 6 3 9.</_></rects>
      <tilted>0</tilted></_>
    <_>
      <rects>
        <_>
          1 11 2 4 -1.</_>
        <_>
          1 11 1 2 2.</_>
        <_>
          2 13 1 2 2.</_></rects>
      <tilted>0</tilted></_>
    <_>
      <rects>
        <_>
          1 18 18 2 -1.</_>
        <_>
          7 18 6 2 3.</_></rects>
      <tilted>0</tilted></_>
    <_>
      <rects>
        <_>
          2 0 12 2 -1.</_>
        <_>
          2 0 6 2 2.</_></rects>
      <tilted>1</tilted></_>
    <_>
      <rects>
        <_>
          2 0 16 6 -1.</_>
        <_>
          2 3 16 3 2.</_></rects>
      <tilted>0</tilted></_>
    <_>
      <rects>
        <_>
          2 0 18 12 -1.</_>
        <_>
          2 6 18 6 2.</_></rects>
      <tilted>0</tilted></_>
    <_>
      <rects>
        <_>
          2 2 12 6 -1.</_>
        <_>
          6 4 4 2 9.</_></rects>
      <tilted>0</tilted></_>
    <_>
      <rects>
        <_>
          2 4 6 5 -1.</_>
        <_>
          4 4 2 5 3.</_></rects>
      <tilted>0</tilted></_>
    <_>
      <rects>
        <_>
          2 5 6 4 -1.</_>
        <_>
          4 5 2 4 3.</_></rects>
      <tilted>0</tilted></_>
    <_>
      <rects>
        <_>
          2 16 8 4 -1.</_>
        <_>
          2 16 4 2 2.</_>
        <_>
          6 18 4 2 2.</_></rects>
      <tilted>0</tilted></_>
    <_>
      <rects>
        <_>
          3 0 15 18 -1.</_>
        <_>
          3 9 15 9 2.</_></rects>
      <tilted>0</tilted></_>
    <_>
      <rects>
        <_>
          3 1 6 4 -1.</_>
        <_>
          5 1 2 4 3.</_></rects>
      <tilted>0</tilted></_>
    <_>
      <rects>
        <_>
          3 3 6 5 -1.</_>
        <_>
          5 3 2 5 3.</_></rects>
      <tilted>0</tilted></_>
    <_>
      <rects>
        <_>
          3 3 12 6 -1.</_>
        <_>
          7 5 4 2 9.</_></rects>
      <tilted>0</tilted></_>
    <_>
      <rects>
        <_>
          3 6 4 4 -1.</_>
        <_>
          4 6 2 4 2.</_></rects>
      <tilted>0</tilted></_>
    <_>
      <rects>
        <_>
          3 6 6 3 -1.</_>
        <_>
          2 7 6 1 3.</_></rects>
      <tilted>1</tilted></_>
    <_>
      <rects>
        <_>
          3 7 6 3 -1.</_>
        <_>
          2 8 6 1 3.</_></rects>
      <tilted>1</tilted></_>
    <_>
      <rects>
        <_>
          3 9 15 3 -1.</_>
        <_>
          8 10 5 1 9.</_></rects>
      <tilted>0</tilted></_>
    <_>
      <rects>
        <_>
          3 10 2 2 -1.</_>
        <_>
          3 10 2 1 2.</_></rects>
      <tilted>1</tilted></_>
    <_>
      <rects>
        <_>
          3 10 4 3 -1.</_>
        <_>
          2 11 4 1 3.</_></rects>
      <tilted>1</tilted></_>
    <_>
      <rects>
        <_>
          3 11 4 2 -1.</_>
        <_>
          3 11 4 1 2.</_></rects>
      <tilted>1</tilted></_>
    <_>
      <rects>
        <_>
          3 17 16 1 -1.</_>
        <_>
          7 17 8 1 2.</_></rects>
      <tilted>0</tilted></_>
    <_>
      <rects>
        <_>
          4 2 6 5 -1.</_>
        <_>
          6 2 2 5 3.</_></rects>
      <tilted>0</tilted></_>
    <_>
      <rects>
        <_>
          4 3 6 3 -1.</_>
        <_>
          6 3 2 3 3.</_></rects>
      <tilted>0</tilted></_>
    <_>
      <rects>
        <_>
          4 6 4 3 -1.</_>
        <_>
          3 7 4 1 3.</_></rects>
      <tilted>1</tilted></_>
    <_>
      <rects>
        <_>
          4 6 5 3 -1.</_>
        <_>
          3 7 5 1 3.</_></rects>
      <tilted>1</tilted></_>
    <_>
      <rects>
        <_>
          4 6 5 4 -1.</_>
        <_>
          3 7 5 2 2.</_></rects>
      <tilted>1</tilted></_>
    <_>
      <rects>
        <_>
          4 6 6 4 -1.</_>
        <_>
          3 7 6 2 2.</_></rects>
      <tilted>1</tilted></_>
    <_>
      <rects>
        <_>
          4 8 2 6 -1.</_>
        <_>
          4 11 2 3 2.</_></rects>
      <tilted>0</tilted></_>
    <_>
      <rects>
        <_>
          4 10 4 4 -1.</_>
        <_>
          3 11 4 2 2.</_></rects>
      <tilted>1</tilted></_>
    <_>
      <rects>
        <_>
          4 18 12 2 -1.</_>
        <_>
          7 18 6 2 2.</_></rects>
      <tilted>0</tilted></_>
    <_>
      <rects>
        <_>
          4 19 12 1 -1.</_>
        <_>
          10 19 6 1 2.</_></rects>
      <tilted>0</tilted></_>
    <_>
      <rects>
        <_>
          5 0 4 9 -1.</_>
        <_>
          6 0 2 9 2.</_></rects>
      <tilted>0</tilted></_>
    <_>
      <rects>
        <_>
          5 0 13 2 -1.</_>
        <_>
          5 1 13 1 2.</_></rects>
      <tilted>0</tilted></_>
    <_>
      <rects>
        <_>
          5 3 9 9 -1.</_>
        <_>
          8 6 3 3 9.</_></rects>
      <tilted>0</tilted></_>
    <_>
      <rects>
        <_>
          5 3 12 5 -1.</_>
        <_>
          5 3 6 5 2.</_></rects>
      <tilted>1</tilted></_>
    <_>
      <rects>
        <_>
          5 4 4 3 -1.</_>
        <_>
          6 4 2 3 2.</_></rects>
      <tilted>0</tilted></_>
    <_>
      <rects>
        <_>
          5 4 4 4 -1.</_>
        <_>
          4 5 4 2 2.</_></rects>
      <tilted>1</tilted></_>
    <_>
      <rects>
        <_>
          5 5 3 3 -1.</_>
        <_>
          6 5 1 3 3.</_></rects>
      <tilted>0</tilted></_>
    <_>
      <rects>
        <_>
          5 5 4 3 -1.</_>
        <_>
          6 5 2 3 2.</_></rects>
      <tilted>0</tilted></_>
    <_>
      <rects>
        <_>
          5 5 3 3 -1.</_>
        <_>
          4 6 3 1 3.</_></rects>
      <tilted>1</tilted></_>
    <_>
      <rects>
        <_>
          5 5 9 6 -1.</_>
        <_>
          8 7 3 2 9.</_></rects>
      <tilted>0</tilted></_>
    <_>
      <rects>
        <_>
          5 6 4 3 -1.</_>
        <_>
          4 7 4 1 3.</_></rects>
      <tilted>1</tilted></_>
    <_>
      <rects>
        <_>
          5 6 5 4 -1.</_>
        <_>
          4 7 5 2 2.</_></rects>
      <tilted>1</tilted></_>
    <_>
      <rects>
        <_>
          5 6 14 14 -1.</_>
        <_>
          5 13 14 7 2.</_></rects>
      <tilted>0</tilted></_>
    <_>
      <rects>
        <_>
          5 10 12 2 -1.</_>
        <_>
          8 10 6 2 2.</_></rects>
      <tilted>0</tilted></_>
    <_>
      <rects>
        <_>
          5 10 7 3 -1.</_>
        <_>
          4 11 7 1 3.</_></rects>
      <tilted>1</tilted></_>
    <_>
      <rects>
        <_>
          6 1 4 3 -1.</_>
        <_>
          7 1 2 3 2.</_></rects>
      <tilted>0</tilted></_>
    <_>
      <rects>
        <_>
          6 1 5 8 -1.</_>
        <_>
          6 3 5 4 2.</_></rects>
      <tilted>0</tilted></_>
    <_>
      <rects>
        <_>
          6 2 4 5 -1.</_>
        <_>
          7 2 2 5 2.</_></rects>
      <tilted>0</tilted></_>
    <_>
      <rects>
        <_>
          6 3 3 3 -1.</_>
        <_>
          7 3 1 3 3.</_></rects>
      <tilted>0</tilted></_>
    <_>
      <rects>
        <_>
          6 4 3 2 -1.</_>
        <_>
          7 4 1 2 3.</_></rects>
      <tilted>0</tilted></_>
    <_>
      <rects>
        <_>
          6 4 4 5 -1.</_>
        <_>
          7 4 2 5 2.</_></rects>
      <tilted>0</tilted></_>
    <_>
      <rects>
        <_>
          6 4 2 3 -1.</_>
        <_>
          5 5 2 1 3.</_></rects>
      <tilted>1</tilted></_>
    <_>
      <rects>
        <_>
          6 4 9 9 -1.</_>
        <_>
          9 7 3 3 9.</_></rects>
      <tilted>0</tilted></_>
    <_>
      <rects>
        <_>
          6 4 8 3 -1.</_>
        <_>
          10 4 4 3 2.</_></rects>
      <tilted>0</tilted></_>
    <_>
      <rects>
        <_>
          6 5 3 2 -1.</_>
        <_>
          7 5 1 2 3.</_></rects>
      <tilted>0</tilted></_>
    <_>
      <rects>
        <_>
          6 5 4 3 -1.</_>
        <_>
          7 5 2 3 2.</_></rects>
      <tilted>0</tilted></_>
    <_>
      <rects>
        <_>
          6 5 2 3 -1.</_>
        <_>
          5 6 2 1 3.</_></rects>
      <tilted>1</tilted></_>
    <_>
      <rects>
        <_>
          6 5 6 2 -1.</_>
        <_>
          9 5 3 2 2.</_></rects>
      <tilted>0</tilted></_>
    <_>
      <rects>
        <_>
          6 5 6 5 -1.</_>
        <_>
          9 5 3 5 2.</_></rects>
      <tilted>0</tilted></_>
    <_>
      <rects>
        <_>
          6 5 11 4 -1.</_>
        <_>
          6 6 11 2 2.</_></rects>
      <tilted>0</tilted></_>
    <_>
      <rects>
        <_>
          6 6 8 14 -1.</_>
        <_>
          6 13 8 7 2.</_></rects>
      <tilted>0</tilted></_>
    <_>
      <rects>
        <_>
          6 6 9 12 -1.</_>
        <_>
          6 10 9 4 3.</_></rects>
      <tilted>0</tilted></_>
    <_>
      <rects>
        <_>
          6 10 5 4 -1.</_>
        <_>
          5 11 5 2 2.</_></rects>
      <tilted>1</tilted></_>
    <_>
      <rects>
        <_>
          6 10 6 10 -1.</_>
        <_>
          6 15 6 5 2.</_></rects>
      <tilted>0</tilted></_>
    <_>
      <rects>
        <_>
          6 11 3 6 -1.</_>
        <_>
          6 11 3 3 2.</_></rects>
      <tilted>1</tilted></_>
    <_>
      <rects>
        <_>
          6 12 2 6 -1.</_>
        <_>
          6 12 2 3 2.</_></rects>
      <tilted>1</tilted></_>
    <_>
      <rects>
        <_>
          6 12 8 4 -1.</_>
        <_>
          8 12 4 4 2.</_></rects>
      <tilted>0</tilted></_>
    <_>
      <rects>
        <_>
          6 12 4 8 -1.</_>
        <_>
          6 14 4 4 2.</_></rects>
      <tilted>0</tilted></_>
    <_>
      <rects>
        <_>
          6 15 3 3 -1.</_>
        <_>
          7 16 1 1 9.</_></rects>
      <tilted>0</tilted></_>
    <_>
      <rects>
        <_>
          6 16 2 1 -1.</_>
        <_>
          7 16 1 1 2.</_></rects>
      <tilted>0</tilted></_>
    <_>
      <rects>
        <_>
          6 16 1 2 -1.</_>
        <_>
          6 17 1 1 2.</_></rects>
      <tilted>0</tilted></_>
    <_>
      <rects>
        <_>
          6 16 3 2 -1.</_>
        <_>
          7 16 1 2 3.</_></rects>
      <tilted>0</tilted></_>
    <_>
      <rects>
        <_>
          6 16 2 4 -1.</_>
        <_>
          6 18 2 2 2.</_></rects>
      <tilted>0</tilted></_>
    <_>
      <rects>
        <_>
          6 16 3 4 -1.</_>
        <_>
          6 18 3 2 2.</_></rects>
      <tilted>0</tilted></_>
    <_>
      <rects>
        <_>
          7 0 4 5 -1.</_>
        <_>
          8 0 2 5 2.</_></rects>
      <tilted>0</tilted></_>
    <_>
      <rects>
        <_>
          7 1 3 4 -1.</_>
        <_>
          8 1 1 4 3.</_></rects>
      <tilted>0</tilted></_>
    <_>
      <rects>
        <_>
          7 2 4 4 -1.</_>
        <_>
          8 2 2 4 2.</_></rects>
      <tilted>0</tilted></_>
    <_>
      <rects>
        <_>
          7 2 9 6 -1.</_>
        <_>
          7 4 9 2 3.</_></rects>
      <tilted>0</tilted></_>
    <_>
      <rects>
        <_>
          7 3 3 1 -1.</_>
        <_>
          8 3 1 1 3.</_></rects>
      <tilted>0</tilted></_>
    <_>
      <rects>
        <_>
          7 3 3 3 -1.</_>
        <_>
          8 3 1 3 3.</_></rects>
      <tilted>0</tilted></_>
    <_>
      <rects>
        <_>
          7 3 5 6 -1.</_>
        <_>
          7 5 5 2 3.</_></rects>
      <tilted>0</tilted></_>
    <_>
      <rects>
        <_>
          7 4 4 1 -1.</_>
        <_>
          8 4 2 1 2.</_></rects>
      <tilted>0</tilted></_>
    <_>
      <rects>
        <_>
          7 4 3 3 -1.</_>
        <_>
          8 4 1 3 3.</_></rects>
      <tilted>0</tilted></_>
    <_>
      <rects>
        <_>
          7 4 7 2 -1.</_>
        <_>
          7 5 7 1 2.</_></rects>
      <tilted>0</tilted></_>
    <_>
      <rects>
        <_>
          7 5 4 3 -1.</_>
        <_>
          8 5 2 3 2.</_></rects>
      <tilted>0</tilted></_>
    <_>
      <rects>
        <_>
          7 5 8 2 -1.</_>
        <_>
          11 5 4 2 2.</_></rects>
      <tilted>0</tilted></_>
    <_>
      <rects>
        <_>
          7 6 3 2 -1.</_>
        <_>
          8 6 1 2 3.</_></rects>
      <tilted>0</tilted></_>
    <_>
      <rects>
        <_>
          7 6 4 2 -1.</_>
        <_>
          7 7 4 1 2.</_></rects>
      <tilted>0</tilted></_>
    <_>
      <rects>
        <_>
          7 7 3 12 -1.</_>
        <_>
          7 11 3 4 3.</_></rects>
      <tilted>0</tilted></_>
    <_>
      <rects>
        <_>
          7 8 6 4 -1.</_>
        <_>
          10 8 3 4 2.</_></rects>
      <tilted>0</tilted></_>
    <_>
      <rects>
        <_>
          7 10 2 4 -1.</_>
        <_>
          7 11 2 2 2.</_></rects>
      <tilted>0</tilted></_>
    <_>
      <rects>
        <_>
          7 12 4 4 -1.</_>
        <_>
          7 14 4 2 2.</_></rects>
      <tilted>0</tilted></_>
    <_>
      <rects>
        <_>
          7 13 6 1 -1.</_>
        <_>
          7 13 3 1 2.</_></rects>
      <tilted>1</tilted></_>
    <_>
      <rects>
        <_>
          7 16 1 2 -1.</_>
        <_>
          7 17 1 1 2.</_></rects>
      <tilted>0</tilted></_>
    <_>
      <rects>
        <_>
          7 16 3 1 -1.</_>
        <_>
          8 16 1 1 3.</_></rects>
      <tilted>0</tilted></_>
    <_>
      <rects>
        <_>
          7 16 3 2 -1.</_>
        <_>
          8 16 1 2 3.</_></rects>
      <tilted>0</tilted></_>
    <_>
      <rects>
        <_>
          7 16 5 4 -1.</_>
        <_>
          7 18 5 2 2.</_></rects>
      <tilted>0</tilted></_>
    <_>
      <rects>
        <_>
          7 16 12 4 -1.</_>
        <_>
          7 16 6 2 2.</_>
        <_>
          13 18 6 2 2.</_></rects>
      <tilted>0</tilted></_>
    <_>
      <rects>
        <_>
          7 17 2 2 -1.</_>
        <_>
          7 18 2 1 2.</_></rects>
      <tilted>0</tilted></_>
    <_>
      <rects>
        <_>
          8 1 4 7 -1.</_>
        <_>
          9 1 2 7 2.</_></rects>
      <tilted>0</tilted></_>
    <_>
      <rects>
        <_>
          8 2 4 5 -1.</_>
        <_>
          9 2 2 5 2.</_></rects>
      <tilted>0</tilted></_>
    <_>
      <rects>
        <_>
          8 3 3 5 -1.</_>
        <_>
          9 3 1 5 3.</_></rects>
      <tilted>0</tilted></_>
    <_>
      <rects>
        <_>
          8 3 4 6 -1.</_>
        <_>
          8 5 4 2 3.</_></rects>
      <tilted>0</tilted></_>
    <_>
      <rects>
        <_>
          8 4 3 3 -1.</_>
        <_>
          9 4 1 3 3.</_></rects>
      <tilted>0</tilted></_>
    <_>
      <rects>
        <_>
          8 4 6 4 -1.</_>
        <_>
          8 5 6 2 2.</_></rects>
      <tilted>0</tilted></_>
    <_>
      <rects>
        <_>
          8 5 6 3 -1.</_>
        <_>
          10 7 2 3 3.</_></rects>
      <tilted>1</tilted></_>
    <_>
      <rects>
        <_>
          8 6 4 2 -1.</_>
        <_>
          9 6 2 2 2.</_></rects>
      <tilted>0</tilted></_>
    <_>
      <rects>
        <_>
          8 6 3 9 -1.</_>
        <_>
          9 9 1 3 9.</_></rects>
      <tilted>0</tilted></_>
    <_>
      <rects>
        <_>
          8 6 3 14 -1.</_>
        <_>
          8 13 3 7 2.</_></rects>
      <tilted>0</tilted></_>
    <_>
      <rects>
        <_>
          8 6 12 13 -1.</_>
        <_>
          14 6 6 13 2.</_></rects>
      <tilted>0</tilted></_>
    <_>
      <rects>
        <_>
          8 7 3 1 -1.</_>
        <_>
          9 7 1 1 3.</_></rects>
      <tilted>0</tilted></_>
    <_>
      <rects>
        <_>
          8 8 10 12 -1.</_>
        <_>
          8 8 5 6 2.</_>
        <_>
          13 14 5 6 2.</_></rects>
      <tilted>0</tilted></_>
    <_>
      <rects>
        <_>
          8 8 6 2 -1.</_>
        <_>
          8 9 6 1 2.</_></rects>
      <tilted>0</tilted></_>
    <_>
      <rects>
        <_>
          8 10 1 4 -1.</_>
        <_>
          8 11 1 2 2.</_></rects>
      <tilted>0</tilted></_>
    <_>
      <rects>
        <_>
          8 10 3 3 -1.</_>
        <_>
          9 11 1 1 9.</_></rects>
      <tilted>0</tilted></_>
    <_>
      <rects>
        <_>
          8 11 3 1 -1.</_>
        <_>
          9 11 1 1 3.</_></rects>
      <tilted>0</tilted></_>
    <_>
      <rects>
        <_>
          8 12 2 4 -1.</_>
        <_>
          8 14 2 2 2.</_></rects>
      <tilted>0</tilted></_>
    <_>
      <rects>
        <_>
          8 13 1 4 -1.</_>
        <_>
          8 14 1 2 2.</_></rects>
      <tilted>0</tilted></_>
    <_>
      <rects>
        <_>
          8 13 2 2 -1.</_>
        <_>
          8 14 2 1 2.</_></rects>
      <tilted>0</tilted></_>
    <_>
      <rects>
        <_>
          8 14 4 4 -1.</_>
        <_>
          8 15 4 2 2.</_></rects>
      <tilted>0</tilted></_>
    <_>
      <rects>
        <_>
          8 15 3 3 -1.</_>
        <_>
          9 15 1 3 3.</_></rects>
      <tilted>0</tilted></_>
    <_>
      <rects>
        <_>
          8 15 3 4 -1.</_>
        <_>
          9 15 1 4 3.</_></rects>
      <tilted>0</tilted></_>
    <_>
      <rects>
        <_>
          8 16 1 2 -1.</_>
        <_>
          8 17 1 1 2.</_></rects>
      <tilted>0</tilted></_>
    <_>
      <rects>
        <_>
          8 16 2 2 -1.</_>
        <_>
          8 16 2 1 2.</_></rects>
      <tilted>1</tilted></_>
    <_>
      <rects>
        <_>
          8 17 1 2 -1.</_>
        <_>
          8 18 1 1 2.</_></rects>
      <tilted>0</tilted></_>
    <_>
      <rects>
        <_>
          8 17 3 1 -1.</_>
        <_>
          9 17 1 1 3.</_></rects>
      <tilted>0</tilted></_>
    <_>
      <rects>
        <_>
          8 17 4 2 -1.</_>
        <_>
          8 18 4 1 2.</_></rects>
      <tilted>0</tilted></_>
    <_>
      <rects>
        <_>
          8 17 12 3 -1.</_>
        <_>
          14 17 6 3 2.</_></rects>
      <tilted>0</tilted></_>
    <_>
      <rects>
        <_>
          9 2 4 5 -1.</_>
        <_>
          10 2 2 5 2.</_></rects>
      <tilted>0</tilted></_>
    <_>
      <rects>
        <_>
          9 4 4 1 -1.</_>
        <_>
          10 4 2 1 2.</_></rects>
      <tilted>0</tilted></_>
    <_>
      <rects>
        <_>
          9 4 3 3 -1.</_>
        <_>
          10 4 1 3 3.</_></rects>
      <tilted>0</tilted></_>
    <_>
      <rects>
        <_>
          9 4 3 6 -1.</_>
        <_>
          10 4 1 6 3.</_></rects>
      <tilted>0</tilted></_>
    <_>
      <rects>
        <_>
          9 4 6 3 -1.</_>
        <_>
          11 6 2 3 3.</_></rects>
      <tilted>1</tilted></_>
    <_>
      <rects>
        <_>
          9 5 3 1 -1.</_>
        <_>
          10 5 1 1 3.</_></rects>
      <tilted>0</tilted></_>
    <_>
      <rects>
        <_>
          9 5 3 4 -1.</_>
        <_>
          10 5 1 4 3.</_></rects>
      <tilted>0</tilted></_>
    <_>
      <rects>
        <_>
          9 5 4 3 -1.</_>
        <_>
          9 6 4 1 3.</_></rects>
      <tilted>0</tilted></_>
    <_>
      <rects>
        <_>
          9 6 3 2 -1.</_>
        <_>
          10 6 1 2 3.</_></rects>
      <tilted>0</tilted></_>
    <_>
      <rects>
        <_>
          9 6 3 3 -1.</_>
        <_>
          10 6 1 3 3.</_></rects>
      <tilted>0</tilted></_>
    <_>
      <rects>
        <_>
          9 6 7 2 -1.</_>
        <_>
          9 7 7 1 2.</_></rects>
      <tilted>0</tilted></_>
    <_>
      <rects>
        <_>
          9 7 4 1 -1.</_>
        <_>
          10 7 2 1 2.</_></rects>
      <tilted>0</tilted></_>
    <_>
      <rects>
        <_>
          9 7 3 2 -1.</_>
        <_>
          10 7 1 2 3.</_></rects>
      <tilted>0</tilted></_>
    <_>
      <rects>
        <_>
          9 7 3 4 -1.</_>
        <_>
          9 9 3 2 2.</_></rects>
      <tilted>0</tilted></_>
    <_>
      <rects>
        <_>
          9 7 5 12 -1.</_>
        <_>
          9 13 5 6 2.</_></rects>
      <tilted>0</tilted></_>
    <_>
      <rects>
        <_>
          9 8 4 9 -1.</_>
        <_>
          9 11 4 3 3.</_></rects>
      <tilted>0</tilted></_>
    <_>
      <rects>
        <_>
          9 8 4 6 -1.</_>
        <_>
          9 8 4 3 2.</_></rects>
      <tilted>1</tilted></_>
    <_>
      <rects>
        <_>
          9 8 4 12 -1.</_>
        <_>
          9 14 4 6 2.</_></rects>
      <tilted>0</tilted></_>
    <_>
      <rects>
        <_>
          9 9 3 1 -1.</_>
        <_>
          10 9 1 1 3.</_></rects>
      <tilted>0</tilted></_>
    <_>
      <rects>
        <_>
          9 9 3 1 -1.</_>
        <_>
          10 10 1 1 3.</_></rects>
      <tilted>1</tilted></_>
    <_>
      <rects>
        <_>
          9 9 1 8 -1.</_>
        <_>
          9 13 1 4 2.</_></rects>
      <tilted>0</tilted></_>
    <_>
      <rects>
        <_>
          9 9 6 1 -1.</_>
        <_>
          11 11 2 1 3.</_></rects>
      <tilted>1</tilted></_>
    <_>
      <rects>
        <_>
          9 9 4 3 -1.</_>
        <_>
          11 9 2 3 2.</_></rects>
      <tilted>0</tilted></_>
    <_>
      <rects>
        <_>
          9 10 2 1 -1.</_>
        <_>
          10 10 1 1 2.</_></rects>
      <tilted>0</tilted></_>
    <_>
      <rects>
        <_>
          9 10 3 3 -1.</_>
        <_>
          10 11 1 1 9.</_></rects>
      <tilted>0</tilted></_>
    <_>
      <rects>
        <_>
          9 10 2 4 -1.</_>
        <_>
          9 10 1 2 2.</_>
        <_>
          10 12 1 2 2.</_></rects>
      <tilted>0</tilted></_>
    <_>
      <rects>
        <_>
          9 10 8 6 -1.</_>
        <_>
          9 10 4 3 2.</_>
        <_>
          13 13 4 3 2.</_></rects>
      <tilted>0</tilted></_>
    <_>
      <rects>
        <_>
          9 11 3 1 -1.</_>
        <_>
          10 11 1 1 3.</_></rects>
      <tilted>0</tilted></_>
    <_>
      <rects>
        <_>
          9 12 3 8 -1.</_>
        <_>
          9 14 3 4 2.</_></rects>
      <tilted>0</tilted></_>
    <_>
      <rects>
        <_>
          9 12 4 8 -1.</_>
        <_>
          9 16 4 4 2.</_></rects>
      <tilted>0</tilted></_>
    <_>
      <rects>
        <_>
          9 13 1 3 -1.</_>
        <_>
          8 14 1 1 3.</_></rects>
      <tilted>1</tilted></_>
    <_>
      <rects>
        <_>
          9 15 1 3 -1.</_>
        <_>
          9 16 1 1 3.</_></rects>
      <tilted>0</tilted></_>
    <_>
      <rects>
        <_>
          9 15 2 3 -1.</_>
        <_>
          9 16 2 1 3.</_></rects>
      <tilted>0</tilted></_>
    <_>
      <rects>
        <_>
          9 16 3 2 -1.</_>
        <_>
          10 16 1 2 3.</_></rects>
      <tilted>0</tilted></_>
    <_>
      <rects>
        <_>
          9 16 2 3 -1.</_>
        <_>
          9 17 2 1 3.</_></rects>
      <tilted>0</tilted></_>
    <_>
      <rects>
        <_>
          9 17 1 2 -1.</_>
        <_>
          9 18 1 1 2.</_></rects>
      <tilted>0</tilted></_>
    <_>
      <rects>
        <_>
          9 17 3 1 -1.</_>
        <_>
          10 17 1 1 3.</_></rects>
      <tilted>0</tilted></_>
    <_>
      <rects>
        <_>
          9 17 3 2 -1.</_>
        <_>
          10 17 1 2 3.</_></rects>
      <tilted>0</tilted></_>
    <_>
      <rects>
        <_>
          9 18 1 2 -1.</_>
        <_>
          9 19 1 1 2.</_></rects>
      <tilted>0</tilted></_>
    <_>
      <rects>
        <_>
          10 0 9 4 -1.</_>
        <_>
          10 2 9 2 2.</_></rects>
      <tilted>0</tilted></_>
    <_>
      <rects>
        <_>
          10 1 10 19 -1.</_>
        <_>
          15 1 5 19 2.</_></rects>
      <tilted>0</tilted></_>
    <_>
      <rects>
        <_>
          10 2 4 3 -1.</_>
        <_>
          11 2 2 3 2.</_></rects>
      <tilted>0</tilted></_>
    <_>
      <rects>
        <_>
          10 2 3 4 -1.</_>
        <_>
          11 2 1 4 3.</_></rects>
      <tilted>0</tilted></_>
    <_>
      <rects>
        <_>
          10 3 3 2 -1.</_>
        <_>
          11 3 1 2 3.</_></rects>
      <tilted>0</tilted></_>
    <_>
      <rects>
        <_>
          10 3 3 5 -1.</_>
        <_>
          11 3 1 5 3.</_></rects>
      <tilted>0</tilted></_>
    <_>
      <rects>
        <_>
          10 4 4 5 -1.</_>
        <_>
          11 4 2 5 2.</_></rects>
      <tilted>0</tilted></_>
    <_>
      <rects>
        <_>
          10 5 3 8 -1.</_>
        <_>
          11 5 1 8 3.</_></rects>
      <tilted>0</tilted></_>
    <_>
      <rects>
        <_>
          10 6 1 4 -1.</_>
        <_>
          10 7 1 2 2.</_></rects>
      <tilted>0</tilted></_>
    <_>
      <rects>
        <_>
          10 6 2 8 -1.</_>
        <_>
          10 6 2 4 2.</_></rects>
      <tilted>1</tilted></_>
    <_>
      <rects>
        <_>
          10 7 3 1 -1.</_>
        <_>
          11 7 1 1 3.</_></rects>
      <tilted>0</tilted></_>
    <_>
      <rects>
        <_>
          10 7 2 3 -1.</_>
        <_>
          10 8 2 1 3.</_></rects>
      <tilted>0</tilted></_>
    <_>
      <rects>
        <_>
          10 8 2 8 -1.</_>
        <_>
          10 12 2 4 2.</_></rects>
      <tilted>0</tilted></_>
    <_>
      <rects>
        <_>
          10 8 4 2 -1.</_>
        <_>
          10 9 4 1 2.</_></rects>
      <tilted>0</tilted></_>
    <_>
      <rects>
        <_>
          10 9 1 2 -1.</_>
        <_>
          10 10 1 1 2.</_></rects>
      <tilted>0</tilted></_>
    <_>
      <rects>
        <_>
          10 9 2 10 -1.</_>
        <_>
          10 9 1 5 2.</_>
        <_>
          11 14 1 5 2.</_></rects>
      <tilted>0</tilted></_>
    <_>
      <rects>
        <_>
          10 9 2 2 -1.</_>
        <_>
          10 9 2 1 2.</_></rects>
      <tilted>1</tilted></_>
    <_>
      <rects>
        <_>
          10 10 1 2 -1.</_>
        <_>
          10 11 1 1 2.</_></rects>
      <tilted>0</tilted></_>
    <_>
      <rects>
        <_>
          10 10 2 2 -1.</_>
        <_>
          11 10 1 2 2.</_></rects>
      <tilted>0</tilted></_>
    <_>
      <rects>
        <_>
          10 10 3 3 -1.</_>
        <_>
          11 10 1 3 3.</_></rects>
      <tilted>0</tilted></_>
    <_>
      <rects>
        <_>
          10 10 2 6 -1.</_>
        <_>
          10 10 1 3 2.</_>
        <_>
          11 13 1 3 2.</_></rects>
      <tilted>0</tilted></_>
    <_>
      <rects>
        <_>
          10 10 10 9 -1.</_>
        <_>
          15 10 5 9 2.</_></rects>
      <tilted>0</tilted></_>
    <_>
      <rects>
        <_>
          10 11 1 4 -1.</_>
        <_>
          10 13 1 2 2.</_></rects>
      <tilted>0</tilted></_>
    <_>
      <rects>
        <_>
          10 12 2 4 -1.</_>
        <_>
          10 13 2 2 2.</_></rects>
      <tilted>0</tilted></_>
    <_>
      <rects>
        <_>
          10 12 2 4 -1.</_>
        <_>
          10 12 2 2 2.</_></rects>
      <tilted>1</tilted></_>
    <_>
      <rects>
        <_>
          10 14 1 4 -1.</_>
        <_>
          10 15 1 2 2.</_></rects>
      <tilted>0</tilted></_>
    <_>
      <rects>
        <_>
          10 15 3 3 -1.</_>
        <_>
          11 15 1 3 3.</_></rects>
      <tilted>0</tilted></_>
    <_>
      <rects>
        <_>
          10 16 1 3 -1.</_>
        <_>
          10 17 1 1 3.</_></rects>
      <tilted>0</tilted></_>
    <_>
      <rects>
        <_>
          10 17 10 2 -1.</_>
        <_>
          15 17 5 2 2.</_></rects>
      <tilted>0</tilted></_>
    <_>
      <rects>
        <_>
          10 18 1 2 -1.</_>
        <_>
          10 19 1 1 2.</_></rects>
      <tilted>0</tilted></_>
    <_>
      <rects>
        <_>
          11 1 4 3 -1.</_>
        <_>
          12 1 2 3 2.</_></rects>
      <tilted>0</tilted></_>
    <_>
      <rects>
        <_>
          11 1 4 4 -1.</_>
        <_>
          12 1 2 4 2.</_></rects>
      <tilted>0</tilted></_>
    <_>
      <rects>
        <_>
          11 1 4 10 -1.</_>
        <_>
          11 1 4 5 2.</_></rects>
      <tilted>1</tilted></_>
    <_>
      <rects>
        <_>
          11 3 4 3 -1.</_>
        <_>
          12 3 2 3 2.</_></rects>
      <tilted>0</tilted></_>
    <_>
      <rects>
        <_>
          11 4 3 1 -1.</_>
        <_>
          12 5 1 1 3.</_></rects>
      <tilted>1</tilted></_>
    <_>
      <rects>
        <_>
          11 5 3 1 -1.</_>
        <_>
          12 6 1 1 3.</_></rects>
      <tilted>1</tilted></_>
    <_>
      <rects>
        <_>
          11 5 4 3 -1.</_>
        <_>
          12 5 2 3 2.</_></rects>
      <tilted>0</tilted></_>
    <_>
      <rects>
        <_>
          11 8 6 3 -1.</_>
        <_>
          13 10 2 3 3.</_></rects>
      <tilted>1</tilted></_>
    <_>
      <rects>
        <_>
          11 9 2 10 -1.</_>
        <_>
          11 14 2 5 2.</_></rects>
      <tilted>0</tilted></_>
    <_>
      <rects>
        <_>
          11 10 4 1 -1.</_>
        <_>
          12 11 2 1 2.</_></rects>
      <tilted>1</tilted></_>
    <_>
      <rects>
        <_>
          11 10 2 3 -1.</_>
        <_>
          12 10 1 3 2.</_></rects>
      <tilted>0</tilted></_>
    <_>
      <rects>
        <_>
          11 11 1 8 -1.</_>
        <_>
          11 15 1 4 2.</_></rects>
      <tilted>0</tilted></_>
    <_>
      <rects>
        <_>
          11 12 1 3 -1.</_>
        <_>
          10 13 1 1 3.</_></rects>
      <tilted>1</tilted></_>
    <_>
      <rects>
        <_>
          11 14 3 3 -1.</_>
        <_>
          12 14 1 3 3.</_></rects>
      <tilted>0</tilted></_>
    <_>
      <rects>
        <_>
          11 14 2 4 -1.</_>
        <_>
          11 15 2 2 2.</_></rects>
      <tilted>0</tilted></_>
    <_>
      <rects>
        <_>
          11 15 3 1 -1.</_>
        <_>
          12 15 1 1 3.</_></rects>
      <tilted>0</tilted></_>
    <_>
      <rects>
        <_>
          11 17 1 2 -1.</_>
        <_>
          11 18 1 1 2.</_></rects>
      <tilted>0</tilted></_>
    <_>
      <rects>
        <_>
          12 1 4 6 -1.</_>
        <_>
          13 1 2 6 2.</_></rects>
      <tilted>0</tilted></_>
    <_>
      <rects>
        <_>
          12 2 3 1 -1.</_>
        <_>
          13 3 1 1 3.</_></rects>
      <tilted>1</tilted></_>
    <_>
      <rects>
        <_>
          12 3 3 1 -1.</_>
        <_>
          13 4 1 1 3.</_></rects>
      <tilted>1</tilted></_>
    <_>
      <rects>
        <_>
          12 3 2 6 -1.</_>
        <_>
          12 3 1 3 2.</_>
        <_>
          13 6 1 3 2.</_></rects>
      <tilted>0</tilted></_>
    <_>
      <rects>
        <_>
          12 3 8 3 -1.</_>
        <_>
          12 3 4 3 2.</_></rects>
      <tilted>1</tilted></_>
    <_>
      <rects>
        <_>
          12 4 3 1 -1.</_>
        <_>
          13 5 1 1 3.</_></rects>
      <tilted>1</tilted></_>
    <_>
      <rects>
        <_>
          12 4 8 2 -1.</_>
        <_>
          12 4 4 2 2.</_></rects>
      <tilted>1</tilted></_>
    <_>
      <rects>
        <_>
          12 10 1 3 -1.</_>
        <_>
          11 11 1 1 3.</_></rects>
      <tilted>1</tilted></_>
    <_>
      <rects>
        <_>
          12 11 8 7 -1.</_>
        <_>
          16 11 4 7 2.</_></rects>
      <tilted>0</tilted></_>
    <_>
      <rects>
        <_>
          12 13 3 5 -1.</_>
        <_>
          13 13 1 5 3.</_></rects>
      <tilted>0</tilted></_>
    <_>
      <rects>
        <_>
          12 17 2 1 -1.</_>
        <_>
          12 17 1 1 2.</_></rects>
      <tilted>1</tilted></_>
    <_>
      <rects>
        <_>
          13 1 4 5 -1.</_>
        <_>
